digraph Tree {
node [shape=box] ;
0 [label="X[56] <= 0.593\ngini = 0.2\nsamples = 51686\nvalue = [46056, 943, 4006, 414, 267]"] ;
1 [label="X[10] <= -1.954\ngini = 0.573\nsamples = 9367\nvalue = [5177, 776, 3159, 253, 2]"] ;
0 -> 1 [labeldistance=2.5, labelangle=45, headlabel="True"] ;
2 [label="X[8] <= -0.849\ngini = 0.357\nsamples = 2724\nvalue = [269, 171, 2157, 127, 0]"] ;
1 -> 2 ;
3 [label="X[27] <= -0.491\ngini = 0.622\nsamples = 868\nvalue = [248, 166, 442, 12, 0]"] ;
2 -> 3 ;
4 [label="X[56] <= 0.444\ngini = 0.103\nsamples = 334\nvalue = [2, 15, 316, 1, 0]"] ;
3 -> 4 ;
5 [label="gini = 0.0\nsamples = 12\nvalue = [0, 12, 0, 0, 0]"] ;
4 -> 5 ;
6 [label="X[23] <= -0.204\ngini = 0.037\nsamples = 322\nvalue = [2, 3, 316, 1, 0]"] ;
4 -> 6 ;
7 [label="X[30] <= 2.529\ngini = 0.019\nsamples = 319\nvalue = [0, 2, 316, 1, 0]"] ;
6 -> 7 ;
8 [label="X[21] <= -0.723\ngini = 0.012\nsamples = 318\nvalue = [0, 2, 316, 0, 0]"] ;
7 -> 8 ;
9 [label="gini = 0.0\nsamples = 1\nvalue = [0, 1, 0, 0, 0]"] ;
8 -> 9 ;
10 [label="X[57] <= 0.478\ngini = 0.006\nsamples = 317\nvalue = [0, 1, 316, 0, 0]"] ;
8 -> 10 ;
11 [label="gini = 0.0\nsamples = 1\nvalue = [0, 1, 0, 0, 0]"] ;
10 -> 11 ;
12 [label="gini = 0.0\nsamples = 316\nvalue = [0, 0, 316, 0, 0]"] ;
10 -> 12 ;
13 [label="gini = 0.0\nsamples = 1\nvalue = [0, 0, 0, 1, 0]"] ;
7 -> 13 ;
14 [label="X[49] <= -0.639\ngini = 0.444\nsamples = 3\nvalue = [2, 1, 0, 0, 0]"] ;
6 -> 14 ;
15 [label="gini = 0.0\nsamples = 1\nvalue = [0, 1, 0, 0, 0]"] ;
14 -> 15 ;
16 [label="gini = 0.0\nsamples = 2\nvalue = [2, 0, 0, 0, 0]"] ;
14 -> 16 ;
17 [label="X[27] <= -0.086\ngini = 0.652\nsamples = 534\nvalue = [246, 151, 126, 11, 0]"] ;
3 -> 17 ;
18 [label="X[49] <= -0.032\ngini = 0.562\nsamples = 207\nvalue = [17, 117, 69, 4, 0]"] ;
17 -> 18 ;
19 [label="X[38] <= 0.02\ngini = 0.376\nsamples = 149\nvalue = [7, 115, 24, 3, 0]"] ;
18 -> 19 ;
20 [label="X[37] <= 0.141\ngini = 0.083\nsamples = 117\nvalue = [1, 112, 2, 2, 0]"] ;
19 -> 20 ;
21 [label="X[5] <= -6.626\ngini = 0.035\nsamples = 114\nvalue = [1, 112, 1, 0, 0]"] ;
20 -> 21 ;
22 [label="gini = 0.0\nsamples = 1\nvalue = [0, 0, 1, 0, 0]"] ;
21 -> 22 ;
23 [label="X[56] <= 0.382\ngini = 0.018\nsamples = 113\nvalue = [1, 112, 0, 0, 0]"] ;
21 -> 23 ;
24 [label="gini = 0.0\nsamples = 1\nvalue = [1, 0, 0, 0, 0]"] ;
23 -> 24 ;
25 [label="gini = 0.0\nsamples = 112\nvalue = [0, 112, 0, 0, 0]"] ;
23 -> 25 ;
26 [label="X[51] <= 1.624\ngini = 0.444\nsamples = 3\nvalue = [0, 0, 1, 2, 0]"] ;
20 -> 26 ;
27 [label="gini = 0.0\nsamples = 2\nvalue = [0, 0, 0, 2, 0]"] ;
26 -> 27 ;
28 [label="gini = 0.0\nsamples = 1\nvalue = [0, 0, 1, 0, 0]"] ;
26 -> 28 ;
29 [label="X[23] <= -0.229\ngini = 0.482\nsamples = 32\nvalue = [6, 3, 22, 1, 0]"] ;
19 -> 29 ;
30 [label="gini = 0.0\nsamples = 21\nvalue = [0, 0, 21, 0, 0]"] ;
29 -> 30 ;
31 [label="X[46] <= -0.191\ngini = 0.612\nsamples = 11\nvalue = [6, 3, 1, 1, 0]"] ;
29 -> 31 ;
32 [label="gini = 0.0\nsamples = 6\nvalue = [6, 0, 0, 0, 0]"] ;
31 -> 32 ;
33 [label="X[20] <= -0.729\ngini = 0.56\nsamples = 5\nvalue = [0, 3, 1, 1, 0]"] ;
31 -> 33 ;
34 [label="X[24] <= 0.117\ngini = 0.5\nsamples = 2\nvalue = [0, 0, 1, 1, 0]"] ;
33 -> 34 ;
35 [label="gini = 0.0\nsamples = 1\nvalue = [0, 0, 1, 0, 0]"] ;
34 -> 35 ;
36 [label="gini = 0.0\nsamples = 1\nvalue = [0, 0, 0, 1, 0]"] ;
34 -> 36 ;
37 [label="gini = 0.0\nsamples = 3\nvalue = [0, 3, 0, 0, 0]"] ;
33 -> 37 ;
38 [label="X[10] <= -2.529\ngini = 0.367\nsamples = 58\nvalue = [10, 2, 45, 1, 0]"] ;
18 -> 38 ;
39 [label="X[20] <= 0.685\ngini = 0.248\nsamples = 51\nvalue = [4, 2, 44, 1, 0]"] ;
38 -> 39 ;
40 [label="X[10] <= -4.871\ngini = 0.187\nsamples = 49\nvalue = [4, 0, 44, 1, 0]"] ;
39 -> 40 ;
41 [label="gini = 0.0\nsamples = 35\nvalue = [0, 0, 35, 0, 0]"] ;
40 -> 41 ;
42 [label="X[36] <= 0.009\ngini = 0.5\nsamples = 14\nvalue = [4, 0, 9, 1, 0]"] ;
40 -> 42 ;
43 [label="X[23] <= -0.281\ngini = 0.32\nsamples = 5\nvalue = [4, 0, 0, 1, 0]"] ;
42 -> 43 ;
44 [label="gini = 0.0\nsamples = 1\nvalue = [0, 0, 0, 1, 0]"] ;
43 -> 44 ;
45 [label="gini = 0.0\nsamples = 4\nvalue = [4, 0, 0, 0, 0]"] ;
43 -> 45 ;
46 [label="gini = 0.0\nsamples = 9\nvalue = [0, 0, 9, 0, 0]"] ;
42 -> 46 ;
47 [label="gini = 0.0\nsamples = 2\nvalue = [0, 2, 0, 0, 0]"] ;
39 -> 47 ;
48 [label="X[37] <= 0.676\ngini = 0.245\nsamples = 7\nvalue = [6, 0, 1, 0, 0]"] ;
38 -> 48 ;
49 [label="gini = 0.0\nsamples = 6\nvalue = [6, 0, 0, 0, 0]"] ;
48 -> 49 ;
50 [label="gini = 0.0\nsamples = 1\nvalue = [0, 0, 1, 0, 0]"] ;
48 -> 50 ;
51 [label="X[7] <= 2.734\ngini = 0.468\nsamples = 327\nvalue = [229, 34, 57, 7, 0]"] ;
17 -> 51 ;
52 [label="X[20] <= -0.362\ngini = 0.353\nsamples = 289\nvalue = [229, 34, 19, 7, 0]"] ;
51 -> 52 ;
53 [label="X[48] <= -0.524\ngini = 0.207\nsamples = 232\nvalue = [206, 13, 8, 5, 0]"] ;
52 -> 53 ;
54 [label="X[54] <= -0.061\ngini = 0.32\nsamples = 5\nvalue = [1, 0, 4, 0, 0]"] ;
53 -> 54 ;
55 [label="gini = 0.0\nsamples = 4\nvalue = [0, 0, 4, 0, 0]"] ;
54 -> 55 ;
56 [label="gini = 0.0\nsamples = 1\nvalue = [1, 0, 0, 0, 0]"] ;
54 -> 56 ;
57 [label="X[25] <= 3.858\ngini = 0.18\nsamples = 227\nvalue = [205, 13, 4, 5, 0]"] ;
53 -> 57 ;
58 [label="X[9] <= -2.419\ngini = 0.153\nsamples = 222\nvalue = [204, 9, 4, 5, 0]"] ;
57 -> 58 ;
59 [label="X[48] <= 1.476\ngini = 0.11\nsamples = 210\nvalue = [198, 4, 3, 5, 0]"] ;
58 -> 59 ;
60 [label="X[40] <= -4.381\ngini = 0.093\nsamples = 208\nvalue = [198, 2, 3, 5, 0]"] ;
59 -> 60 ;
61 [label="X[30] <= -5.142\ngini = 0.5\nsamples = 2\nvalue = [0, 1, 0, 1, 0]"] ;
60 -> 61 ;
62 [label="gini = 0.0\nsamples = 1\nvalue = [0, 0, 0, 1, 0]"] ;
61 -> 62 ;
63 [label="gini = 0.0\nsamples = 1\nvalue = [0, 1, 0, 0, 0]"] ;
61 -> 63 ;
64 [label="X[16] <= -0.404\ngini = 0.076\nsamples = 206\nvalue = [198, 1, 3, 4, 0]"] ;
60 -> 64 ;
65 [label="gini = 0.0\nsamples = 1\nvalue = [0, 0, 1, 0, 0]"] ;
64 -> 65 ;
66 [label="X[57] <= 2.557\ngini = 0.067\nsamples = 205\nvalue = [198, 1, 2, 4, 0]"] ;
64 -> 66 ;
67 [label="X[20] <= -1.823\ngini = 0.058\nsamples = 204\nvalue = [198, 1, 1, 4, 0]"] ;
66 -> 67 ;
68 [label="gini = 0.0\nsamples = 1\nvalue = [0, 0, 0, 1, 0]"] ;
67 -> 68 ;
69 [label="X[27] <= -0.076\ngini = 0.048\nsamples = 203\nvalue = [198, 1, 1, 3, 0]"] ;
67 -> 69 ;
70 [label="X[43] <= -0.003\ngini = 0.5\nsamples = 2\nvalue = [1, 0, 0, 1, 0]"] ;
69 -> 70 ;
71 [label="gini = 0.0\nsamples = 1\nvalue = [1, 0, 0, 0, 0]"] ;
70 -> 71 ;
72 [label="gini = 0.0\nsamples = 1\nvalue = [0, 0, 0, 1, 0]"] ;
70 -> 72 ;
73 [label="X[18] <= -0.732\ngini = 0.039\nsamples = 201\nvalue = [197, 1, 1, 2, 0]"] ;
69 -> 73 ;
74 [label="X[11] <= -3.003\ngini = 0.32\nsamples = 5\nvalue = [4, 0, 1, 0, 0]"] ;
73 -> 74 ;
75 [label="gini = 0.0\nsamples = 1\nvalue = [0, 0, 1, 0, 0]"] ;
74 -> 75 ;
76 [label="gini = 0.0\nsamples = 4\nvalue = [4, 0, 0, 0, 0]"] ;
74 -> 76 ;
77 [label="X[21] <= 0.127\ngini = 0.03\nsamples = 196\nvalue = [193, 1, 0, 2, 0]"] ;
73 -> 77 ;
78 [label="X[47] <= -0.144\ngini = 0.32\nsamples = 5\nvalue = [4, 1, 0, 0, 0]"] ;
77 -> 78 ;
79 [label="gini = 0.0\nsamples = 4\nvalue = [4, 0, 0, 0, 0]"] ;
78 -> 79 ;
80 [label="gini = 0.0\nsamples = 1\nvalue = [0, 1, 0, 0, 0]"] ;
78 -> 80 ;
81 [label="X[35] <= -2.606\ngini = 0.021\nsamples = 191\nvalue = [189, 0, 0, 2, 0]"] ;
77 -> 81 ;
82 [label="X[18] <= 0.355\ngini = 0.245\nsamples = 7\nvalue = [6, 0, 0, 1, 0]"] ;
81 -> 82 ;
83 [label="gini = 0.0\nsamples = 6\nvalue = [6, 0, 0, 0, 0]"] ;
82 -> 83 ;
84 [label="gini = 0.0\nsamples = 1\nvalue = [0, 0, 0, 1, 0]"] ;
82 -> 84 ;
85 [label="X[37] <= 1.661\ngini = 0.011\nsamples = 184\nvalue = [183, 0, 0, 1, 0]"] ;
81 -> 85 ;
86 [label="gini = 0.0\nsamples = 177\nvalue = [177, 0, 0, 0, 0]"] ;
85 -> 86 ;
87 [label="X[55] <= -0.072\ngini = 0.245\nsamples = 7\nvalue = [6, 0, 0, 1, 0]"] ;
85 -> 87 ;
88 [label="gini = 0.0\nsamples = 6\nvalue = [6, 0, 0, 0, 0]"] ;
87 -> 88 ;
89 [label="gini = 0.0\nsamples = 1\nvalue = [0, 0, 0, 1, 0]"] ;
87 -> 89 ;
90 [label="gini = 0.0\nsamples = 1\nvalue = [0, 0, 1, 0, 0]"] ;
66 -> 90 ;
91 [label="gini = 0.0\nsamples = 2\nvalue = [0, 2, 0, 0, 0]"] ;
59 -> 91 ;
92 [label="X[50] <= 0.021\ngini = 0.569\nsamples = 12\nvalue = [6, 5, 1, 0, 0]"] ;
58 -> 92 ;
93 [label="X[20] <= -0.682\ngini = 0.278\nsamples = 6\nvalue = [0, 5, 1, 0, 0]"] ;
92 -> 93 ;
94 [label="gini = 0.0\nsamples = 1\nvalue = [0, 0, 1, 0, 0]"] ;
93 -> 94 ;
95 [label="gini = 0.0\nsamples = 5\nvalue = [0, 5, 0, 0, 0]"] ;
93 -> 95 ;
96 [label="gini = 0.0\nsamples = 6\nvalue = [6, 0, 0, 0, 0]"] ;
92 -> 96 ;
97 [label="X[55] <= -0.249\ngini = 0.32\nsamples = 5\nvalue = [1, 4, 0, 0, 0]"] ;
57 -> 97 ;
98 [label="gini = 0.0\nsamples = 1\nvalue = [1, 0, 0, 0, 0]"] ;
97 -> 98 ;
99 [label="gini = 0.0\nsamples = 4\nvalue = [0, 4, 0, 0, 0]"] ;
97 -> 99 ;
100 [label="X[26] <= -0.491\ngini = 0.663\nsamples = 57\nvalue = [23, 21, 11, 2, 0]"] ;
52 -> 100 ;
101 [label="X[7] <= -2.363\ngini = 0.204\nsamples = 18\nvalue = [1, 16, 1, 0, 0]"] ;
100 -> 101 ;
102 [label="X[28] <= 0.712\ngini = 0.5\nsamples = 2\nvalue = [1, 0, 1, 0, 0]"] ;
101 -> 102 ;
103 [label="gini = 0.0\nsamples = 1\nvalue = [1, 0, 0, 0, 0]"] ;
102 -> 103 ;
104 [label="gini = 0.0\nsamples = 1\nvalue = [0, 0, 1, 0, 0]"] ;
102 -> 104 ;
105 [label="gini = 0.0\nsamples = 16\nvalue = [0, 16, 0, 0, 0]"] ;
101 -> 105 ;
106 [label="X[57] <= 0.585\ngini = 0.597\nsamples = 39\nvalue = [22, 5, 10, 2, 0]"] ;
100 -> 106 ;
107 [label="X[9] <= -6.775\ngini = 0.234\nsamples = 23\nvalue = [20, 1, 0, 2, 0]"] ;
106 -> 107 ;
108 [label="gini = 0.0\nsamples = 2\nvalue = [0, 0, 0, 2, 0]"] ;
107 -> 108 ;
109 [label="X[13] <= -1.102\ngini = 0.091\nsamples = 21\nvalue = [20, 1, 0, 0, 0]"] ;
107 -> 109 ;
110 [label="gini = 0.0\nsamples = 20\nvalue = [20, 0, 0, 0, 0]"] ;
109 -> 110 ;
111 [label="gini = 0.0\nsamples = 1\nvalue = [0, 1, 0, 0, 0]"] ;
109 -> 111 ;
112 [label="X[39] <= -0.053\ngini = 0.531\nsamples = 16\nvalue = [2, 4, 10, 0, 0]"] ;
106 -> 112 ;
113 [label="X[37] <= -1.402\ngini = 0.278\nsamples = 12\nvalue = [0, 2, 10, 0, 0]"] ;
112 -> 113 ;
114 [label="X[5] <= -4.04\ngini = 0.444\nsamples = 3\nvalue = [0, 2, 1, 0, 0]"] ;
113 -> 114 ;
115 [label="gini = 0.0\nsamples = 2\nvalue = [0, 2, 0, 0, 0]"] ;
114 -> 115 ;
116 [label="gini = 0.0\nsamples = 1\nvalue = [0, 0, 1, 0, 0]"] ;
114 -> 116 ;
117 [label="gini = 0.0\nsamples = 9\nvalue = [0, 0, 9, 0, 0]"] ;
113 -> 117 ;
118 [label="X[0] <= -2.756\ngini = 0.5\nsamples = 4\nvalue = [2, 2, 0, 0, 0]"] ;
112 -> 118 ;
119 [label="gini = 0.0\nsamples = 2\nvalue = [2, 0, 0, 0, 0]"] ;
118 -> 119 ;
120 [label="gini = 0.0\nsamples = 2\nvalue = [0, 2, 0, 0, 0]"] ;
118 -> 120 ;
121 [label="gini = 0.0\nsamples = 38\nvalue = [0, 0, 38, 0, 0]"] ;
51 -> 121 ;
122 [label="X[25] <= -0.148\ngini = 0.142\nsamples = 1856\nvalue = [21, 5, 1715, 115, 0]"] ;
2 -> 122 ;
123 [label="X[19] <= 2.841\ngini = 0.536\nsamples = 148\nvalue = [5, 1, 66, 76, 0]"] ;
122 -> 123 ;
124 [label="X[10] <= -2.463\ngini = 0.146\nsamples = 64\nvalue = [0, 1, 59, 4, 0]"] ;
123 -> 124 ;
125 [label="X[20] <= -3.649\ngini = 0.119\nsamples = 63\nvalue = [0, 0, 59, 4, 0]"] ;
124 -> 125 ;
126 [label="X[18] <= 0.095\ngini = 0.426\nsamples = 13\nvalue = [0, 0, 9, 4, 0]"] ;
125 -> 126 ;
127 [label="gini = 0.0\nsamples = 4\nvalue = [0, 0, 0, 4, 0]"] ;
126 -> 127 ;
128 [label="gini = 0.0\nsamples = 9\nvalue = [0, 0, 9, 0, 0]"] ;
126 -> 128 ;
129 [label="gini = 0.0\nsamples = 50\nvalue = [0, 0, 50, 0, 0]"] ;
125 -> 129 ;
130 [label="gini = 0.0\nsamples = 1\nvalue = [0, 1, 0, 0, 0]"] ;
124 -> 130 ;
131 [label="X[35] <= -1.101\ngini = 0.255\nsamples = 84\nvalue = [5, 0, 7, 72, 0]"] ;
123 -> 131 ;
132 [label="X[42] <= 0.008\ngini = 0.027\nsamples = 73\nvalue = [0, 0, 1, 72, 0]"] ;
131 -> 132 ;
133 [label="gini = 0.0\nsamples = 72\nvalue = [0, 0, 0, 72, 0]"] ;
132 -> 133 ;
134 [label="gini = 0.0\nsamples = 1\nvalue = [0, 0, 1, 0, 0]"] ;
132 -> 134 ;
135 [label="X[36] <= 0.387\ngini = 0.496\nsamples = 11\nvalue = [5, 0, 6, 0, 0]"] ;
131 -> 135 ;
136 [label="gini = 0.0\nsamples = 5\nvalue = [5, 0, 0, 0, 0]"] ;
135 -> 136 ;
137 [label="gini = 0.0\nsamples = 6\nvalue = [0, 0, 6, 0, 0]"] ;
135 -> 137 ;
138 [label="X[10] <= -3.495\ngini = 0.067\nsamples = 1708\nvalue = [16, 4, 1649, 39, 0]"] ;
122 -> 138 ;
139 [label="X[46] <= 0.587\ngini = 0.018\nsamples = 1505\nvalue = [2, 0, 1491, 12, 0]"] ;
138 -> 139 ;
140 [label="X[20] <= 0.245\ngini = 0.01\nsamples = 1468\nvalue = [2, 0, 1461, 5, 0]"] ;
139 -> 140 ;
141 [label="X[36] <= 8.766\ngini = 0.008\nsamples = 1467\nvalue = [1, 0, 1461, 5, 0]"] ;
140 -> 141 ;
142 [label="X[45] <= 0.712\ngini = 0.007\nsamples = 1466\nvalue = [1, 0, 1461, 4, 0]"] ;
141 -> 142 ;
143 [label="X[8] <= -0.775\ngini = 0.005\nsamples = 1465\nvalue = [1, 0, 1461, 3, 0]"] ;
142 -> 143 ;
144 [label="X[48] <= 0.791\ngini = 0.278\nsamples = 6\nvalue = [1, 0, 5, 0, 0]"] ;
143 -> 144 ;
145 [label="gini = 0.0\nsamples = 5\nvalue = [0, 0, 5, 0, 0]"] ;
144 -> 145 ;
146 [label="gini = 0.0\nsamples = 1\nvalue = [1, 0, 0, 0, 0]"] ;
144 -> 146 ;
147 [label="X[42] <= 0.006\ngini = 0.004\nsamples = 1459\nvalue = [0, 0, 1456, 3, 0]"] ;
143 -> 147 ;
148 [label="X[56] <= 0.588\ngini = 0.003\nsamples = 1450\nvalue = [0, 0, 1448, 2, 0]"] ;
147 -> 148 ;
149 [label="X[46] <= 0.536\ngini = 0.001\nsamples = 1430\nvalue = [0, 0, 1429, 1, 0]"] ;
148 -> 149 ;
150 [label="gini = 0.0\nsamples = 1409\nvalue = [0, 0, 1409, 0, 0]"] ;
149 -> 150 ;
151 [label="X[33] <= 0.277\ngini = 0.091\nsamples = 21\nvalue = [0, 0, 20, 1, 0]"] ;
149 -> 151 ;
152 [label="gini = 0.0\nsamples = 1\nvalue = [0, 0, 0, 1, 0]"] ;
151 -> 152 ;
153 [label="gini = 0.0\nsamples = 20\nvalue = [0, 0, 20, 0, 0]"] ;
151 -> 153 ;
154 [label="X[25] <= -0.068\ngini = 0.095\nsamples = 20\nvalue = [0, 0, 19, 1, 0]"] ;
148 -> 154 ;
155 [label="gini = 0.0\nsamples = 1\nvalue = [0, 0, 0, 1, 0]"] ;
154 -> 155 ;
156 [label="gini = 0.0\nsamples = 19\nvalue = [0, 0, 19, 0, 0]"] ;
154 -> 156 ;
157 [label="X[6] <= -3.119\ngini = 0.198\nsamples = 9\nvalue = [0, 0, 8, 1, 0]"] ;
147 -> 157 ;
158 [label="gini = 0.0\nsamples = 1\nvalue = [0, 0, 0, 1, 0]"] ;
157 -> 158 ;
159 [label="gini = 0.0\nsamples = 8\nvalue = [0, 0, 8, 0, 0]"] ;
157 -> 159 ;
160 [label="gini = 0.0\nsamples = 1\nvalue = [0, 0, 0, 1, 0]"] ;
142 -> 160 ;
161 [label="gini = 0.0\nsamples = 1\nvalue = [0, 0, 0, 1, 0]"] ;
141 -> 161 ;
162 [label="gini = 0.0\nsamples = 1\nvalue = [1, 0, 0, 0, 0]"] ;
140 -> 162 ;
163 [label="X[57] <= 0.537\ngini = 0.307\nsamples = 37\nvalue = [0, 0, 30, 7, 0]"] ;
139 -> 163 ;
164 [label="gini = 0.0\nsamples = 4\nvalue = [0, 0, 0, 4, 0]"] ;
163 -> 164 ;
165 [label="X[22] <= 0.585\ngini = 0.165\nsamples = 33\nvalue = [0, 0, 30, 3, 0]"] ;
163 -> 165 ;
166 [label="X[25] <= 0.136\ngini = 0.062\nsamples = 31\nvalue = [0, 0, 30, 1, 0]"] ;
165 -> 166 ;
167 [label="gini = 0.0\nsamples = 30\nvalue = [0, 0, 30, 0, 0]"] ;
166 -> 167 ;
168 [label="gini = 0.0\nsamples = 1\nvalue = [0, 0, 0, 1, 0]"] ;
166 -> 168 ;
169 [label="gini = 0.0\nsamples = 2\nvalue = [0, 0, 0, 2, 0]"] ;
165 -> 169 ;
170 [label="X[57] <= 0.635\ngini = 0.371\nsamples = 203\nvalue = [14, 4, 158, 27, 0]"] ;
138 -> 170 ;
171 [label="X[56] <= 0.51\ngini = 0.616\nsamples = 63\nvalue = [8, 1, 27, 27, 0]"] ;
170 -> 171 ;
172 [label="X[26] <= -0.016\ngini = 0.344\nsamples = 24\nvalue = [4, 0, 19, 1, 0]"] ;
171 -> 172 ;
173 [label="X[22] <= 0.022\ngini = 0.571\nsamples = 7\nvalue = [4, 0, 2, 1, 0]"] ;
172 -> 173 ;
174 [label="gini = 0.0\nsamples = 4\nvalue = [4, 0, 0, 0, 0]"] ;
173 -> 174 ;
175 [label="X[0] <= -0.781\ngini = 0.444\nsamples = 3\nvalue = [0, 0, 2, 1, 0]"] ;
173 -> 175 ;
176 [label="gini = 0.0\nsamples = 1\nvalue = [0, 0, 0, 1, 0]"] ;
175 -> 176 ;
177 [label="gini = 0.0\nsamples = 2\nvalue = [0, 0, 2, 0, 0]"] ;
175 -> 177 ;
178 [label="gini = 0.0\nsamples = 17\nvalue = [0, 0, 17, 0, 0]"] ;
172 -> 178 ;
179 [label="X[19] <= 2.44\ngini = 0.502\nsamples = 39\nvalue = [4, 1, 8, 26, 0]"] ;
171 -> 179 ;
180 [label="X[31] <= -0.494\ngini = 0.245\nsamples = 7\nvalue = [0, 1, 6, 0, 0]"] ;
179 -> 180 ;
181 [label="gini = 0.0\nsamples = 1\nvalue = [0, 1, 0, 0, 0]"] ;
180 -> 181 ;
182 [label="gini = 0.0\nsamples = 6\nvalue = [0, 0, 6, 0, 0]"] ;
180 -> 182 ;
183 [label="X[22] <= -0.127\ngini = 0.32\nsamples = 32\nvalue = [4, 0, 2, 26, 0]"] ;
179 -> 183 ;
184 [label="X[35] <= -1.017\ngini = 0.444\nsamples = 6\nvalue = [4, 0, 2, 0, 0]"] ;
183 -> 184 ;
185 [label="gini = 0.0\nsamples = 2\nvalue = [0, 0, 2, 0, 0]"] ;
184 -> 185 ;
186 [label="gini = 0.0\nsamples = 4\nvalue = [4, 0, 0, 0, 0]"] ;
184 -> 186 ;
187 [label="gini = 0.0\nsamples = 26\nvalue = [0, 0, 0, 26, 0]"] ;
183 -> 187 ;
188 [label="X[13] <= -2.223\ngini = 0.122\nsamples = 140\nvalue = [6, 3, 131, 0, 0]"] ;
170 -> 188 ;
189 [label="gini = 0.0\nsamples = 4\nvalue = [4, 0, 0, 0, 0]"] ;
188 -> 189 ;
190 [label="X[7] <= 0.48\ngini = 0.071\nsamples = 136\nvalue = [2, 3, 131, 0, 0]"] ;
188 -> 190 ;
191 [label="gini = 0.0\nsamples = 3\nvalue = [0, 3, 0, 0, 0]"] ;
190 -> 191 ;
192 [label="X[14] <= 0.008\ngini = 0.03\nsamples = 133\nvalue = [2, 0, 131, 0, 0]"] ;
190 -> 192 ;
193 [label="X[42] <= -0.023\ngini = 0.015\nsamples = 132\nvalue = [1, 0, 131, 0, 0]"] ;
192 -> 193 ;
194 [label="gini = 0.0\nsamples = 1\nvalue = [1, 0, 0, 0, 0]"] ;
193 -> 194 ;
195 [label="gini = 0.0\nsamples = 131\nvalue = [0, 0, 131, 0, 0]"] ;
193 -> 195 ;
196 [label="gini = 0.0\nsamples = 1\nvalue = [1, 0, 0, 0, 0]"] ;
192 -> 196 ;
197 [label="X[8] <= -2.781\ngini = 0.423\nsamples = 6643\nvalue = [4908, 605, 1002, 126, 2]"] ;
1 -> 197 ;
198 [label="X[8] <= -3.603\ngini = 0.247\nsamples = 844\nvalue = [38, 78, 727, 1, 0]"] ;
197 -> 198 ;
199 [label="X[18] <= 0.855\ngini = 0.033\nsamples = 594\nvalue = [6, 3, 584, 1, 0]"] ;
198 -> 199 ;
200 [label="X[10] <= -1.943\ngini = 0.027\nsamples = 591\nvalue = [4, 3, 583, 1, 0]"] ;
199 -> 200 ;
201 [label="gini = 0.0\nsamples = 1\nvalue = [0, 1, 0, 0, 0]"] ;
200 -> 201 ;
202 [label="X[53] <= 3.252\ngini = 0.024\nsamples = 590\nvalue = [4, 2, 583, 1, 0]"] ;
200 -> 202 ;
203 [label="X[49] <= -1.427\ngini = 0.02\nsamples = 589\nvalue = [3, 2, 583, 1, 0]"] ;
202 -> 203 ;
204 [label="X[18] <= -0.244\ngini = 0.375\nsamples = 4\nvalue = [1, 0, 3, 0, 0]"] ;
203 -> 204 ;
205 [label="gini = 0.0\nsamples = 1\nvalue = [1, 0, 0, 0, 0]"] ;
204 -> 205 ;
206 [label="gini = 0.0\nsamples = 3\nvalue = [0, 0, 3, 0, 0]"] ;
204 -> 206 ;
207 [label="X[10] <= -1.893\ngini = 0.017\nsamples = 585\nvalue = [2, 2, 580, 1, 0]"] ;
203 -> 207 ;
208 [label="X[57] <= 0.533\ngini = 0.278\nsamples = 6\nvalue = [1, 0, 5, 0, 0]"] ;
207 -> 208 ;
209 [label="gini = 0.0\nsamples = 1\nvalue = [1, 0, 0, 0, 0]"] ;
208 -> 209 ;
210 [label="gini = 0.0\nsamples = 5\nvalue = [0, 0, 5, 0, 0]"] ;
208 -> 210 ;
211 [label="X[9] <= -4.474\ngini = 0.014\nsamples = 579\nvalue = [1, 2, 575, 1, 0]"] ;
207 -> 211 ;
212 [label="X[50] <= 0.253\ngini = 0.278\nsamples = 6\nvalue = [1, 0, 5, 0, 0]"] ;
211 -> 212 ;
213 [label="gini = 0.0\nsamples = 5\nvalue = [0, 0, 5, 0, 0]"] ;
212 -> 213 ;
214 [label="gini = 0.0\nsamples = 1\nvalue = [1, 0, 0, 0, 0]"] ;
212 -> 214 ;
215 [label="X[8] <= -3.631\ngini = 0.01\nsamples = 573\nvalue = [0, 2, 570, 1, 0]"] ;
211 -> 215 ;
216 [label="X[14] <= 0.004\ngini = 0.007\nsamples = 563\nvalue = [0, 1, 561, 1, 0]"] ;
215 -> 216 ;
217 [label="X[46] <= 0.798\ngini = 0.004\nsamples = 545\nvalue = [0, 0, 544, 1, 0]"] ;
216 -> 217 ;
218 [label="gini = 0.0\nsamples = 516\nvalue = [0, 0, 516, 0, 0]"] ;
217 -> 218 ;
219 [label="X[46] <= 0.801\ngini = 0.067\nsamples = 29\nvalue = [0, 0, 28, 1, 0]"] ;
217 -> 219 ;
220 [label="gini = 0.0\nsamples = 1\nvalue = [0, 0, 0, 1, 0]"] ;
219 -> 220 ;
221 [label="gini = 0.0\nsamples = 28\nvalue = [0, 0, 28, 0, 0]"] ;
219 -> 221 ;
222 [label="X[14] <= 0.004\ngini = 0.105\nsamples = 18\nvalue = [0, 1, 17, 0, 0]"] ;
216 -> 222 ;
223 [label="gini = 0.0\nsamples = 1\nvalue = [0, 1, 0, 0, 0]"] ;
222 -> 223 ;
224 [label="gini = 0.0\nsamples = 17\nvalue = [0, 0, 17, 0, 0]"] ;
222 -> 224 ;
225 [label="X[46] <= 0.067\ngini = 0.18\nsamples = 10\nvalue = [0, 1, 9, 0, 0]"] ;
215 -> 225 ;
226 [label="gini = 0.0\nsamples = 9\nvalue = [0, 0, 9, 0, 0]"] ;
225 -> 226 ;
227 [label="gini = 0.0\nsamples = 1\nvalue = [0, 1, 0, 0, 0]"] ;
225 -> 227 ;
228 [label="gini = 0.0\nsamples = 1\nvalue = [1, 0, 0, 0, 0]"] ;
202 -> 228 ;
229 [label="X[48] <= 0.928\ngini = 0.444\nsamples = 3\nvalue = [2, 0, 1, 0, 0]"] ;
199 -> 229 ;
230 [label="gini = 0.0\nsamples = 2\nvalue = [2, 0, 0, 0, 0]"] ;
229 -> 230 ;
231 [label="gini = 0.0\nsamples = 1\nvalue = [0, 0, 1, 0, 0]"] ;
229 -> 231 ;
232 [label="X[48] <= -0.203\ngini = 0.566\nsamples = 250\nvalue = [32, 75, 143, 0, 0]"] ;
198 -> 232 ;
233 [label="X[57] <= 0.628\ngini = 0.236\nsamples = 73\nvalue = [0, 63, 10, 0, 0]"] ;
232 -> 233 ;
234 [label="X[47] <= 0.572\ngini = 0.061\nsamples = 64\nvalue = [0, 62, 2, 0, 0]"] ;
233 -> 234 ;
235 [label="gini = 0.0\nsamples = 62\nvalue = [0, 62, 0, 0, 0]"] ;
234 -> 235 ;
236 [label="gini = 0.0\nsamples = 2\nvalue = [0, 0, 2, 0, 0]"] ;
234 -> 236 ;
237 [label="X[44] <= 0.14\ngini = 0.198\nsamples = 9\nvalue = [0, 1, 8, 0, 0]"] ;
233 -> 237 ;
238 [label="gini = 0.0\nsamples = 8\nvalue = [0, 0, 8, 0, 0]"] ;
237 -> 238 ;
239 [label="gini = 0.0\nsamples = 1\nvalue = [0, 1, 0, 0, 0]"] ;
237 -> 239 ;
240 [label="X[10] <= -1.247\ngini = 0.398\nsamples = 177\nvalue = [32, 12, 133, 0, 0]"] ;
232 -> 240 ;
241 [label="X[45] <= -0.023\ngini = 0.432\nsamples = 37\nvalue = [26, 10, 1, 0, 0]"] ;
240 -> 241 ;
242 [label="X[0] <= -2.327\ngini = 0.34\nsamples = 10\nvalue = [1, 8, 1, 0, 0]"] ;
241 -> 242 ;
243 [label="X[24] <= 0.173\ngini = 0.5\nsamples = 2\nvalue = [1, 0, 1, 0, 0]"] ;
242 -> 243 ;
244 [label="gini = 0.0\nsamples = 1\nvalue = [1, 0, 0, 0, 0]"] ;
243 -> 244 ;
245 [label="gini = 0.0\nsamples = 1\nvalue = [0, 0, 1, 0, 0]"] ;
243 -> 245 ;
246 [label="gini = 0.0\nsamples = 8\nvalue = [0, 8, 0, 0, 0]"] ;
242 -> 246 ;
247 [label="X[57] <= 0.688\ngini = 0.137\nsamples = 27\nvalue = [25, 2, 0, 0, 0]"] ;
241 -> 247 ;
248 [label="gini = 0.0\nsamples = 25\nvalue = [25, 0, 0, 0, 0]"] ;
247 -> 248 ;
249 [label="gini = 0.0\nsamples = 2\nvalue = [0, 2, 0, 0, 0]"] ;
247 -> 249 ;
250 [label="X[6] <= -2.857\ngini = 0.109\nsamples = 140\nvalue = [6, 2, 132, 0, 0]"] ;
240 -> 250 ;
251 [label="X[11] <= -1.519\ngini = 0.628\nsamples = 11\nvalue = [5, 2, 4, 0, 0]"] ;
250 -> 251 ;
252 [label="X[0] <= -1.924\ngini = 0.408\nsamples = 7\nvalue = [5, 2, 0, 0, 0]"] ;
251 -> 252 ;
253 [label="gini = 0.0\nsamples = 5\nvalue = [5, 0, 0, 0, 0]"] ;
252 -> 253 ;
254 [label="gini = 0.0\nsamples = 2\nvalue = [0, 2, 0, 0, 0]"] ;
252 -> 254 ;
255 [label="gini = 0.0\nsamples = 4\nvalue = [0, 0, 4, 0, 0]"] ;
251 -> 255 ;
256 [label="X[10] <= -0.766\ngini = 0.015\nsamples = 129\nvalue = [1, 0, 128, 0, 0]"] ;
250 -> 256 ;
257 [label="X[49] <= -0.237\ngini = 0.198\nsamples = 9\nvalue = [1, 0, 8, 0, 0]"] ;
256 -> 257 ;
258 [label="gini = 0.0\nsamples = 8\nvalue = [0, 0, 8, 0, 0]"] ;
257 -> 258 ;
259 [label="gini = 0.0\nsamples = 1\nvalue = [1, 0, 0, 0, 0]"] ;
257 -> 259 ;
260 [label="gini = 0.0\nsamples = 120\nvalue = [0, 0, 120, 0, 0]"] ;
256 -> 260 ;
261 [label="X[56] <= 0.487\ngini = 0.284\nsamples = 5799\nvalue = [4870, 527, 275, 125, 2]"] ;
197 -> 261 ;
262 [label="X[47] <= -0.504\ngini = 0.598\nsamples = 1194\nvalue = [637, 359, 195, 2, 1]"] ;
261 -> 262 ;
263 [label="X[19] <= 0.838\ngini = 0.318\nsamples = 702\nvalue = [572, 48, 82, 0, 0]"] ;
262 -> 263 ;
264 [label="X[7] <= -2.455\ngini = 0.504\nsamples = 54\nvalue = [1, 22, 31, 0, 0]"] ;
263 -> 264 ;
265 [label="gini = 0.0\nsamples = 18\nvalue = [0, 18, 0, 0, 0]"] ;
264 -> 265 ;
266 [label="X[20] <= -0.42\ngini = 0.245\nsamples = 36\nvalue = [1, 4, 31, 0, 0]"] ;
264 -> 266 ;
267 [label="gini = 0.0\nsamples = 4\nvalue = [0, 4, 0, 0, 0]"] ;
266 -> 267 ;
268 [label="X[44] <= 0.176\ngini = 0.061\nsamples = 32\nvalue = [1, 0, 31, 0, 0]"] ;
266 -> 268 ;
269 [label="gini = 0.0\nsamples = 31\nvalue = [0, 0, 31, 0, 0]"] ;
268 -> 269 ;
270 [label="gini = 0.0\nsamples = 1\nvalue = [1, 0, 0, 0, 0]"] ;
268 -> 270 ;
271 [label="X[19] <= 4.744\ngini = 0.216\nsamples = 648\nvalue = [571, 26, 51, 0, 0]"] ;
263 -> 271 ;
272 [label="X[21] <= -0.009\ngini = 0.172\nsamples = 629\nvalue = [571, 26, 32, 0, 0]"] ;
271 -> 272 ;
273 [label="X[49] <= 0.198\ngini = 0.495\nsamples = 20\nvalue = [0, 9, 11, 0, 0]"] ;
272 -> 273 ;
274 [label="gini = 0.0\nsamples = 11\nvalue = [0, 0, 11, 0, 0]"] ;
273 -> 274 ;
275 [label="gini = 0.0\nsamples = 9\nvalue = [0, 9, 0, 0, 0]"] ;
273 -> 275 ;
276 [label="X[57] <= 0.939\ngini = 0.119\nsamples = 609\nvalue = [571, 17, 21, 0, 0]"] ;
272 -> 276 ;
277 [label="X[36] <= 2.12\ngini = 0.075\nsamples = 566\nvalue = [544, 7, 15, 0, 0]"] ;
276 -> 277 ;
278 [label="X[52] <= 1.733\ngini = 0.066\nsamples = 559\nvalue = [540, 7, 12, 0, 0]"] ;
277 -> 278 ;
279 [label="X[12] <= -3.341\ngini = 0.063\nsamples = 558\nvalue = [540, 6, 12, 0, 0]"] ;
278 -> 279 ;
280 [label="gini = 0.0\nsamples = 1\nvalue = [0, 0, 1, 0, 0]"] ;
279 -> 280 ;
281 [label="X[6] <= 1.734\ngini = 0.06\nsamples = 557\nvalue = [540, 6, 11, 0, 0]"] ;
279 -> 281 ;
282 [label="X[18] <= -0.935\ngini = 0.047\nsamples = 540\nvalue = [527, 6, 7, 0, 0]"] ;
281 -> 282 ;
283 [label="X[33] <= 1.34\ngini = 0.444\nsamples = 3\nvalue = [1, 0, 2, 0, 0]"] ;
282 -> 283 ;
284 [label="gini = 0.0\nsamples = 2\nvalue = [0, 0, 2, 0, 0]"] ;
283 -> 284 ;
285 [label="gini = 0.0\nsamples = 1\nvalue = [1, 0, 0, 0, 0]"] ;
283 -> 285 ;
286 [label="X[9] <= 1.287\ngini = 0.04\nsamples = 537\nvalue = [526, 6, 5, 0, 0]"] ;
282 -> 286 ;
287 [label="X[20] <= 0.114\ngini = 0.033\nsamples = 532\nvalue = [523, 6, 3, 0, 0]"] ;
286 -> 287 ;
288 [label="X[48] <= -0.438\ngini = 0.026\nsamples = 527\nvalue = [520, 4, 3, 0, 0]"] ;
287 -> 288 ;
289 [label="X[37] <= -0.36\ngini = 0.5\nsamples = 2\nvalue = [1, 0, 1, 0, 0]"] ;
288 -> 289 ;
290 [label="gini = 0.0\nsamples = 1\nvalue = [0, 0, 1, 0, 0]"] ;
289 -> 290 ;
291 [label="gini = 0.0\nsamples = 1\nvalue = [1, 0, 0, 0, 0]"] ;
289 -> 291 ;
292 [label="X[7] <= -1.616\ngini = 0.023\nsamples = 525\nvalue = [519, 4, 2, 0, 0]"] ;
288 -> 292 ;
293 [label="X[22] <= -0.529\ngini = 0.5\nsamples = 2\nvalue = [1, 0, 1, 0, 0]"] ;
292 -> 293 ;
294 [label="gini = 0.0\nsamples = 1\nvalue = [0, 0, 1, 0, 0]"] ;
293 -> 294 ;
295 [label="gini = 0.0\nsamples = 1\nvalue = [1, 0, 0, 0, 0]"] ;
293 -> 295 ;
296 [label="X[22] <= 0.109\ngini = 0.019\nsamples = 523\nvalue = [518, 4, 1, 0, 0]"] ;
292 -> 296 ;
297 [label="X[14] <= -0.013\ngini = 0.008\nsamples = 497\nvalue = [495, 1, 1, 0, 0]"] ;
296 -> 297 ;
298 [label="X[20] <= -0.456\ngini = 0.198\nsamples = 9\nvalue = [8, 0, 1, 0, 0]"] ;
297 -> 298 ;
299 [label="gini = 0.0\nsamples = 8\nvalue = [8, 0, 0, 0, 0]"] ;
298 -> 299 ;
300 [label="gini = 0.0\nsamples = 1\nvalue = [0, 0, 1, 0, 0]"] ;
298 -> 300 ;
301 [label="X[18] <= -0.24\ngini = 0.004\nsamples = 488\nvalue = [487, 1, 0, 0, 0]"] ;
297 -> 301 ;
302 [label="X[18] <= -0.242\ngini = 0.03\nsamples = 66\nvalue = [65, 1, 0, 0, 0]"] ;
301 -> 302 ;
303 [label="gini = 0.0\nsamples = 65\nvalue = [65, 0, 0, 0, 0]"] ;
302 -> 303 ;
304 [label="gini = 0.0\nsamples = 1\nvalue = [0, 1, 0, 0, 0]"] ;
302 -> 304 ;
305 [label="gini = 0.0\nsamples = 422\nvalue = [422, 0, 0, 0, 0]"] ;
301 -> 305 ;
306 [label="X[33] <= -1.567\ngini = 0.204\nsamples = 26\nvalue = [23, 3, 0, 0, 0]"] ;
296 -> 306 ;
307 [label="gini = 0.0\nsamples = 2\nvalue = [0, 2, 0, 0, 0]"] ;
306 -> 307 ;
308 [label="X[22] <= 0.11\ngini = 0.08\nsamples = 24\nvalue = [23, 1, 0, 0, 0]"] ;
306 -> 308 ;
309 [label="gini = 0.0\nsamples = 1\nvalue = [0, 1, 0, 0, 0]"] ;
308 -> 309 ;
310 [label="gini = 0.0\nsamples = 23\nvalue = [23, 0, 0, 0, 0]"] ;
308 -> 310 ;
311 [label="X[19] <= 1.804\ngini = 0.48\nsamples = 5\nvalue = [3, 2, 0, 0, 0]"] ;
287 -> 311 ;
312 [label="gini = 0.0\nsamples = 3\nvalue = [3, 0, 0, 0, 0]"] ;
311 -> 312 ;
313 [label="gini = 0.0\nsamples = 2\nvalue = [0, 2, 0, 0, 0]"] ;
311 -> 313 ;
314 [label="X[27] <= 0.454\ngini = 0.48\nsamples = 5\nvalue = [3, 0, 2, 0, 0]"] ;
286 -> 314 ;
315 [label="gini = 0.0\nsamples = 3\nvalue = [3, 0, 0, 0, 0]"] ;
314 -> 315 ;
316 [label="gini = 0.0\nsamples = 2\nvalue = [0, 0, 2, 0, 0]"] ;
314 -> 316 ;
317 [label="X[7] <= 0.192\ngini = 0.36\nsamples = 17\nvalue = [13, 0, 4, 0, 0]"] ;
281 -> 317 ;
318 [label="gini = 0.0\nsamples = 3\nvalue = [0, 0, 3, 0, 0]"] ;
317 -> 318 ;
319 [label="X[55] <= -0.378\ngini = 0.133\nsamples = 14\nvalue = [13, 0, 1, 0, 0]"] ;
317 -> 319 ;
320 [label="gini = 0.0\nsamples = 1\nvalue = [0, 0, 1, 0, 0]"] ;
319 -> 320 ;
321 [label="gini = 0.0\nsamples = 13\nvalue = [13, 0, 0, 0, 0]"] ;
319 -> 321 ;
322 [label="gini = 0.0\nsamples = 1\nvalue = [0, 1, 0, 0, 0]"] ;
278 -> 322 ;
323 [label="X[31] <= 2.8\ngini = 0.49\nsamples = 7\nvalue = [4, 0, 3, 0, 0]"] ;
277 -> 323 ;
324 [label="gini = 0.0\nsamples = 3\nvalue = [0, 0, 3, 0, 0]"] ;
323 -> 324 ;
325 [label="gini = 0.0\nsamples = 4\nvalue = [4, 0, 0, 0, 0]"] ;
323 -> 325 ;
326 [label="X[22] <= 0.044\ngini = 0.532\nsamples = 43\nvalue = [27, 10, 6, 0, 0]"] ;
276 -> 326 ;
327 [label="X[7] <= -0.243\ngini = 0.245\nsamples = 29\nvalue = [25, 1, 3, 0, 0]"] ;
326 -> 327 ;
328 [label="gini = 0.0\nsamples = 2\nvalue = [0, 0, 2, 0, 0]"] ;
327 -> 328 ;
329 [label="X[4] <= 0.086\ngini = 0.14\nsamples = 27\nvalue = [25, 1, 1, 0, 0]"] ;
327 -> 329 ;
330 [label="X[34] <= -0.853\ngini = 0.074\nsamples = 26\nvalue = [25, 1, 0, 0, 0]"] ;
329 -> 330 ;
331 [label="gini = 0.0\nsamples = 1\nvalue = [0, 1, 0, 0, 0]"] ;
330 -> 331 ;
332 [label="gini = 0.0\nsamples = 25\nvalue = [25, 0, 0, 0, 0]"] ;
330 -> 332 ;
333 [label="gini = 0.0\nsamples = 1\nvalue = [0, 0, 1, 0, 0]"] ;
329 -> 333 ;
334 [label="X[16] <= -0.033\ngini = 0.52\nsamples = 14\nvalue = [2, 9, 3, 0, 0]"] ;
326 -> 334 ;
335 [label="X[57] <= 1.083\ngini = 0.48\nsamples = 5\nvalue = [2, 0, 3, 0, 0]"] ;
334 -> 335 ;
336 [label="gini = 0.0\nsamples = 3\nvalue = [0, 0, 3, 0, 0]"] ;
335 -> 336 ;
337 [label="gini = 0.0\nsamples = 2\nvalue = [2, 0, 0, 0, 0]"] ;
335 -> 337 ;
338 [label="gini = 0.0\nsamples = 9\nvalue = [0, 9, 0, 0, 0]"] ;
334 -> 338 ;
339 [label="gini = 0.0\nsamples = 19\nvalue = [0, 0, 19, 0, 0]"] ;
271 -> 339 ;
340 [label="X[18] <= -0.176\ngini = 0.53\nsamples = 492\nvalue = [65, 311, 113, 2, 1]"] ;
262 -> 340 ;
341 [label="X[20] <= 0.147\ngini = 0.58\nsamples = 125\nvalue = [34, 19, 71, 0, 1]"] ;
340 -> 341 ;
342 [label="X[36] <= 0.507\ngini = 0.64\nsamples = 92\nvalue = [33, 19, 40, 0, 0]"] ;
341 -> 342 ;
343 [label="X[19] <= -0.086\ngini = 0.639\nsamples = 64\nvalue = [30, 18, 16, 0, 0]"] ;
342 -> 343 ;
344 [label="X[5] <= -2.022\ngini = 0.5\nsamples = 42\nvalue = [25, 1, 16, 0, 0]"] ;
343 -> 344 ;
345 [label="X[35] <= 0.659\ngini = 0.314\nsamples = 11\nvalue = [1, 1, 9, 0, 0]"] ;
344 -> 345 ;
346 [label="X[25] <= -0.197\ngini = 0.5\nsamples = 2\nvalue = [1, 1, 0, 0, 0]"] ;
345 -> 346 ;
347 [label="gini = 0.0\nsamples = 1\nvalue = [0, 1, 0, 0, 0]"] ;
346 -> 347 ;
348 [label="gini = 0.0\nsamples = 1\nvalue = [1, 0, 0, 0, 0]"] ;
346 -> 348 ;
349 [label="gini = 0.0\nsamples = 9\nvalue = [0, 0, 9, 0, 0]"] ;
345 -> 349 ;
350 [label="X[36] <= -1.802\ngini = 0.35\nsamples = 31\nvalue = [24, 0, 7, 0, 0]"] ;
344 -> 350 ;
351 [label="gini = 0.0\nsamples = 4\nvalue = [0, 0, 4, 0, 0]"] ;
350 -> 351 ;
352 [label="X[27] <= 0.589\ngini = 0.198\nsamples = 27\nvalue = [24, 0, 3, 0, 0]"] ;
350 -> 352 ;
353 [label="gini = 0.0\nsamples = 21\nvalue = [21, 0, 0, 0, 0]"] ;
352 -> 353 ;
354 [label="X[19] <= -1.821\ngini = 0.5\nsamples = 6\nvalue = [3, 0, 3, 0, 0]"] ;
352 -> 354 ;
355 [label="gini = 0.0\nsamples = 3\nvalue = [0, 0, 3, 0, 0]"] ;
354 -> 355 ;
356 [label="gini = 0.0\nsamples = 3\nvalue = [3, 0, 0, 0, 0]"] ;
354 -> 356 ;
357 [label="X[41] <= 0.093\ngini = 0.351\nsamples = 22\nvalue = [5, 17, 0, 0, 0]"] ;
343 -> 357 ;
358 [label="gini = 0.0\nsamples = 16\nvalue = [0, 16, 0, 0, 0]"] ;
357 -> 358 ;
359 [label="X[14] <= -0.004\ngini = 0.278\nsamples = 6\nvalue = [5, 1, 0, 0, 0]"] ;
357 -> 359 ;
360 [label="gini = 0.0\nsamples = 1\nvalue = [0, 1, 0, 0, 0]"] ;
359 -> 360 ;
361 [label="gini = 0.0\nsamples = 5\nvalue = [5, 0, 0, 0, 0]"] ;
359 -> 361 ;
362 [label="X[10] <= 0.852\ngini = 0.253\nsamples = 28\nvalue = [3, 1, 24, 0, 0]"] ;
342 -> 362 ;
363 [label="X[35] <= 3.734\ngini = 0.145\nsamples = 26\nvalue = [1, 1, 24, 0, 0]"] ;
362 -> 363 ;
364 [label="X[52] <= 0.316\ngini = 0.077\nsamples = 25\nvalue = [0, 1, 24, 0, 0]"] ;
363 -> 364 ;
365 [label="gini = 0.0\nsamples = 24\nvalue = [0, 0, 24, 0, 0]"] ;
364 -> 365 ;
366 [label="gini = 0.0\nsamples = 1\nvalue = [0, 1, 0, 0, 0]"] ;
364 -> 366 ;
367 [label="gini = 0.0\nsamples = 1\nvalue = [1, 0, 0, 0, 0]"] ;
363 -> 367 ;
368 [label="gini = 0.0\nsamples = 2\nvalue = [2, 0, 0, 0, 0]"] ;
362 -> 368 ;
369 [label="X[49] <= -1.273\ngini = 0.116\nsamples = 33\nvalue = [1, 0, 31, 0, 1]"] ;
341 -> 369 ;
370 [label="gini = 0.0\nsamples = 1\nvalue = [0, 0, 0, 0, 1]"] ;
369 -> 370 ;
371 [label="X[18] <= -1.514\ngini = 0.061\nsamples = 32\nvalue = [1, 0, 31, 0, 0]"] ;
369 -> 371 ;
372 [label="gini = 0.0\nsamples = 1\nvalue = [1, 0, 0, 0, 0]"] ;
371 -> 372 ;
373 [label="gini = 0.0\nsamples = 31\nvalue = [0, 0, 31, 0, 0]"] ;
371 -> 373 ;
374 [label="X[48] <= 0.013\ngini = 0.347\nsamples = 367\nvalue = [31, 292, 42, 2, 0]"] ;
340 -> 374 ;
375 [label="X[36] <= 1.695\ngini = 0.569\nsamples = 58\nvalue = [18, 6, 33, 1, 0]"] ;
374 -> 375 ;
376 [label="X[20] <= -0.328\ngini = 0.54\nsamples = 27\nvalue = [17, 6, 3, 1, 0]"] ;
375 -> 376 ;
377 [label="X[1] <= 0.966\ngini = 0.255\nsamples = 20\nvalue = [17, 0, 3, 0, 0]"] ;
376 -> 377 ;
378 [label="gini = 0.0\nsamples = 17\nvalue = [17, 0, 0, 0, 0]"] ;
377 -> 378 ;
379 [label="gini = 0.0\nsamples = 3\nvalue = [0, 0, 3, 0, 0]"] ;
377 -> 379 ;
380 [label="X[34] <= 1.031\ngini = 0.245\nsamples = 7\nvalue = [0, 6, 0, 1, 0]"] ;
376 -> 380 ;
381 [label="gini = 0.0\nsamples = 6\nvalue = [0, 6, 0, 0, 0]"] ;
380 -> 381 ;
382 [label="gini = 0.0\nsamples = 1\nvalue = [0, 0, 0, 1, 0]"] ;
380 -> 382 ;
383 [label="X[45] <= 0.171\ngini = 0.062\nsamples = 31\nvalue = [1, 0, 30, 0, 0]"] ;
375 -> 383 ;
384 [label="gini = 0.0\nsamples = 30\nvalue = [0, 0, 30, 0, 0]"] ;
383 -> 384 ;
385 [label="gini = 0.0\nsamples = 1\nvalue = [1, 0, 0, 0, 0]"] ;
383 -> 385 ;
386 [label="X[55] <= -0.241\ngini = 0.141\nsamples = 309\nvalue = [13, 286, 9, 1, 0]"] ;
374 -> 386 ;
387 [label="X[10] <= -1.426\ngini = 0.34\nsamples = 10\nvalue = [8, 1, 1, 0, 0]"] ;
386 -> 387 ;
388 [label="X[28] <= 1.237\ngini = 0.5\nsamples = 2\nvalue = [0, 1, 1, 0, 0]"] ;
387 -> 388 ;
389 [label="gini = 0.0\nsamples = 1\nvalue = [0, 1, 0, 0, 0]"] ;
388 -> 389 ;
390 [label="gini = 0.0\nsamples = 1\nvalue = [0, 0, 1, 0, 0]"] ;
388 -> 390 ;
391 [label="gini = 0.0\nsamples = 8\nvalue = [8, 0, 0, 0, 0]"] ;
387 -> 391 ;
392 [label="X[5] <= -2.468\ngini = 0.09\nsamples = 299\nvalue = [5, 285, 8, 1, 0]"] ;
386 -> 392 ;
393 [label="X[28] <= 0.0\ngini = 0.5\nsamples = 6\nvalue = [1, 0, 4, 1, 0]"] ;
392 -> 393 ;
394 [label="gini = 0.0\nsamples = 4\nvalue = [0, 0, 4, 0, 0]"] ;
393 -> 394 ;
395 [label="X[47] <= 0.225\ngini = 0.5\nsamples = 2\nvalue = [1, 0, 0, 1, 0]"] ;
393 -> 395 ;
396 [label="gini = 0.0\nsamples = 1\nvalue = [0, 0, 0, 1, 0]"] ;
395 -> 396 ;
397 [label="gini = 0.0\nsamples = 1\nvalue = [1, 0, 0, 0, 0]"] ;
395 -> 397 ;
398 [label="X[20] <= -1.068\ngini = 0.053\nsamples = 293\nvalue = [4, 285, 4, 0, 0]"] ;
392 -> 398 ;
399 [label="gini = 0.0\nsamples = 3\nvalue = [0, 0, 3, 0, 0]"] ;
398 -> 399 ;
400 [label="X[49] <= -0.459\ngini = 0.034\nsamples = 290\nvalue = [4, 285, 1, 0, 0]"] ;
398 -> 400 ;
401 [label="X[39] <= 0.283\ngini = 0.444\nsamples = 3\nvalue = [2, 0, 1, 0, 0]"] ;
400 -> 401 ;
402 [label="gini = 0.0\nsamples = 1\nvalue = [0, 0, 1, 0, 0]"] ;
401 -> 402 ;
403 [label="gini = 0.0\nsamples = 2\nvalue = [2, 0, 0, 0, 0]"] ;
401 -> 403 ;
404 [label="X[51] <= 1.57\ngini = 0.014\nsamples = 287\nvalue = [2, 285, 0, 0, 0]"] ;
400 -> 404 ;
405 [label="X[8] <= -2.434\ngini = 0.007\nsamples = 286\nvalue = [1, 285, 0, 0, 0]"] ;
404 -> 405 ;
406 [label="X[33] <= 0.509\ngini = 0.5\nsamples = 2\nvalue = [1, 1, 0, 0, 0]"] ;
405 -> 406 ;
407 [label="gini = 0.0\nsamples = 1\nvalue = [0, 1, 0, 0, 0]"] ;
406 -> 407 ;
408 [label="gini = 0.0\nsamples = 1\nvalue = [1, 0, 0, 0, 0]"] ;
406 -> 408 ;
409 [label="gini = 0.0\nsamples = 284\nvalue = [0, 284, 0, 0, 0]"] ;
405 -> 409 ;
410 [label="gini = 0.0\nsamples = 1\nvalue = [1, 0, 0, 0, 0]"] ;
404 -> 410 ;
411 [label="X[27] <= -0.087\ngini = 0.153\nsamples = 4605\nvalue = [4233, 168, 80, 123, 1]"] ;
261 -> 411 ;
412 [label="X[19] <= 3.693\ngini = 0.742\nsamples = 275\nvalue = [88, 67, 66, 54, 0]"] ;
411 -> 412 ;
413 [label="X[38] <= 0.678\ngini = 0.668\nsamples = 215\nvalue = [83, 67, 63, 2, 0]"] ;
412 -> 413 ;
414 [label="X[57] <= 1.069\ngini = 0.55\nsamples = 147\nvalue = [72, 67, 7, 1, 0]"] ;
413 -> 414 ;
415 [label="X[37] <= -0.957\ngini = 0.412\nsamples = 99\nvalue = [72, 24, 2, 1, 0]"] ;
414 -> 415 ;
416 [label="X[20] <= -0.55\ngini = 0.368\nsamples = 22\nvalue = [4, 17, 1, 0, 0]"] ;
415 -> 416 ;
417 [label="gini = 0.0\nsamples = 3\nvalue = [3, 0, 0, 0, 0]"] ;
416 -> 417 ;
418 [label="X[39] <= -2.642\ngini = 0.194\nsamples = 19\nvalue = [1, 17, 1, 0, 0]"] ;
416 -> 418 ;
419 [label="gini = 0.0\nsamples = 1\nvalue = [0, 0, 1, 0, 0]"] ;
418 -> 419 ;
420 [label="X[27] <= -0.096\ngini = 0.105\nsamples = 18\nvalue = [1, 17, 0, 0, 0]"] ;
418 -> 420 ;
421 [label="gini = 0.0\nsamples = 17\nvalue = [0, 17, 0, 0, 0]"] ;
420 -> 421 ;
422 [label="gini = 0.0\nsamples = 1\nvalue = [1, 0, 0, 0, 0]"] ;
420 -> 422 ;
423 [label="X[48] <= -0.291\ngini = 0.212\nsamples = 77\nvalue = [68, 7, 1, 1, 0]"] ;
415 -> 423 ;
424 [label="gini = 0.0\nsamples = 4\nvalue = [0, 4, 0, 0, 0]"] ;
423 -> 424 ;
425 [label="X[46] <= 0.346\ngini = 0.13\nsamples = 73\nvalue = [68, 3, 1, 1, 0]"] ;
423 -> 425 ;
426 [label="X[25] <= 1.92\ngini = 0.081\nsamples = 71\nvalue = [68, 3, 0, 0, 0]"] ;
425 -> 426 ;
427 [label="X[47] <= 0.396\ngini = 0.056\nsamples = 70\nvalue = [68, 2, 0, 0, 0]"] ;
426 -> 427 ;
428 [label="X[6] <= -3.051\ngini = 0.029\nsamples = 69\nvalue = [68, 1, 0, 0, 0]"] ;
427 -> 428 ;
429 [label="X[3] <= -2.133\ngini = 0.5\nsamples = 2\nvalue = [1, 1, 0, 0, 0]"] ;
428 -> 429 ;
430 [label="gini = 0.0\nsamples = 1\nvalue = [1, 0, 0, 0, 0]"] ;
429 -> 430 ;
431 [label="gini = 0.0\nsamples = 1\nvalue = [0, 1, 0, 0, 0]"] ;
429 -> 431 ;
432 [label="gini = 0.0\nsamples = 67\nvalue = [67, 0, 0, 0, 0]"] ;
428 -> 432 ;
433 [label="gini = 0.0\nsamples = 1\nvalue = [0, 1, 0, 0, 0]"] ;
427 -> 433 ;
434 [label="gini = 0.0\nsamples = 1\nvalue = [0, 1, 0, 0, 0]"] ;
426 -> 434 ;
435 [label="X[6] <= -1.138\ngini = 0.5\nsamples = 2\nvalue = [0, 0, 1, 1, 0]"] ;
425 -> 435 ;
436 [label="gini = 0.0\nsamples = 1\nvalue = [0, 0, 0, 1, 0]"] ;
435 -> 436 ;
437 [label="gini = 0.0\nsamples = 1\nvalue = [0, 0, 1, 0, 0]"] ;
435 -> 437 ;
438 [label="X[38] <= -0.101\ngini = 0.187\nsamples = 48\nvalue = [0, 43, 5, 0, 0]"] ;
414 -> 438 ;
439 [label="gini = 0.0\nsamples = 43\nvalue = [0, 43, 0, 0, 0]"] ;
438 -> 439 ;
440 [label="gini = 0.0\nsamples = 5\nvalue = [0, 0, 5, 0, 0]"] ;
438 -> 440 ;
441 [label="X[5] <= -0.929\ngini = 0.295\nsamples = 68\nvalue = [11, 0, 56, 1, 0]"] ;
413 -> 441 ;
442 [label="gini = 0.0\nsamples = 8\nvalue = [8, 0, 0, 0, 0]"] ;
441 -> 442 ;
443 [label="X[43] <= -0.028\ngini = 0.126\nsamples = 60\nvalue = [3, 0, 56, 1, 0]"] ;
441 -> 443 ;
444 [label="gini = 0.0\nsamples = 2\nvalue = [2, 0, 0, 0, 0]"] ;
443 -> 444 ;
445 [label="X[9] <= 1.953\ngini = 0.067\nsamples = 58\nvalue = [1, 0, 56, 1, 0]"] ;
443 -> 445 ;
446 [label="gini = 0.0\nsamples = 56\nvalue = [0, 0, 56, 0, 0]"] ;
445 -> 446 ;
447 [label="X[20] <= -0.835\ngini = 0.5\nsamples = 2\nvalue = [1, 0, 0, 1, 0]"] ;
445 -> 447 ;
448 [label="gini = 0.0\nsamples = 1\nvalue = [0, 0, 0, 1, 0]"] ;
447 -> 448 ;
449 [label="gini = 0.0\nsamples = 1\nvalue = [1, 0, 0, 0, 0]"] ;
447 -> 449 ;
450 [label="X[9] <= -3.056\ngini = 0.239\nsamples = 60\nvalue = [5, 0, 3, 52, 0]"] ;
412 -> 450 ;
451 [label="X[34] <= 1.251\ngini = 0.628\nsamples = 11\nvalue = [5, 0, 2, 4, 0]"] ;
450 -> 451 ;
452 [label="X[28] <= 0.027\ngini = 0.408\nsamples = 7\nvalue = [5, 0, 2, 0, 0]"] ;
451 -> 452 ;
453 [label="gini = 0.0\nsamples = 2\nvalue = [0, 0, 2, 0, 0]"] ;
452 -> 453 ;
454 [label="gini = 0.0\nsamples = 5\nvalue = [5, 0, 0, 0, 0]"] ;
452 -> 454 ;
455 [label="gini = 0.0\nsamples = 4\nvalue = [0, 0, 0, 4, 0]"] ;
451 -> 455 ;
456 [label="X[15] <= 0.027\ngini = 0.04\nsamples = 49\nvalue = [0, 0, 1, 48, 0]"] ;
450 -> 456 ;
457 [label="gini = 0.0\nsamples = 48\nvalue = [0, 0, 0, 48, 0]"] ;
456 -> 457 ;
458 [label="gini = 0.0\nsamples = 1\nvalue = [0, 0, 1, 0, 0]"] ;
456 -> 458 ;
459 [label="X[19] <= 0.778\ngini = 0.083\nsamples = 4330\nvalue = [4145, 101, 14, 69, 1]"] ;
411 -> 459 ;
460 [label="X[35] <= -0.254\ngini = 0.505\nsamples = 51\nvalue = [9, 34, 7, 1, 0]"] ;
459 -> 460 ;
461 [label="X[48] <= 0.503\ngini = 0.323\nsamples = 42\nvalue = [1, 34, 6, 1, 0]"] ;
460 -> 461 ;
462 [label="X[30] <= -2.85\ngini = 0.105\nsamples = 36\nvalue = [0, 34, 2, 0, 0]"] ;
461 -> 462 ;
463 [label="gini = 0.0\nsamples = 2\nvalue = [0, 0, 2, 0, 0]"] ;
462 -> 463 ;
464 [label="gini = 0.0\nsamples = 34\nvalue = [0, 34, 0, 0, 0]"] ;
462 -> 464 ;
465 [label="X[17] <= -0.023\ngini = 0.5\nsamples = 6\nvalue = [1, 0, 4, 1, 0]"] ;
461 -> 465 ;
466 [label="gini = 0.0\nsamples = 4\nvalue = [0, 0, 4, 0, 0]"] ;
465 -> 466 ;
467 [label="X[41] <= 0.86\ngini = 0.5\nsamples = 2\nvalue = [1, 0, 0, 1, 0]"] ;
465 -> 467 ;
468 [label="gini = 0.0\nsamples = 1\nvalue = [1, 0, 0, 0, 0]"] ;
467 -> 468 ;
469 [label="gini = 0.0\nsamples = 1\nvalue = [0, 0, 0, 1, 0]"] ;
467 -> 469 ;
470 [label="X[16] <= -0.04\ngini = 0.198\nsamples = 9\nvalue = [8, 0, 1, 0, 0]"] ;
460 -> 470 ;
471 [label="gini = 0.0\nsamples = 1\nvalue = [0, 0, 1, 0, 0]"] ;
470 -> 471 ;
472 [label="gini = 0.0\nsamples = 8\nvalue = [8, 0, 0, 0, 0]"] ;
470 -> 472 ;
473 [label="X[19] <= 3.58\ngini = 0.065\nsamples = 4279\nvalue = [4136, 67, 7, 68, 1]"] ;
459 -> 473 ;
474 [label="X[57] <= 0.665\ngini = 0.038\nsamples = 4093\nvalue = [4014, 67, 6, 5, 1]"] ;
473 -> 474 ;
475 [label="X[18] <= -0.734\ngini = 0.01\nsamples = 3897\nvalue = [3877, 12, 2, 5, 1]"] ;
474 -> 475 ;
476 [label="X[13] <= 0.486\ngini = 0.444\nsamples = 3\nvalue = [0, 0, 2, 0, 1]"] ;
475 -> 476 ;
477 [label="gini = 0.0\nsamples = 2\nvalue = [0, 0, 2, 0, 0]"] ;
476 -> 477 ;
478 [label="gini = 0.0\nsamples = 1\nvalue = [0, 0, 0, 0, 1]"] ;
476 -> 478 ;
479 [label="X[22] <= 0.3\ngini = 0.009\nsamples = 3894\nvalue = [3877, 12, 0, 5, 0]"] ;
475 -> 479 ;
480 [label="X[13] <= -5.591\ngini = 0.008\nsamples = 3892\nvalue = [3877, 10, 0, 5, 0]"] ;
479 -> 480 ;
481 [label="gini = 0.0\nsamples = 1\nvalue = [0, 1, 0, 0, 0]"] ;
480 -> 481 ;
482 [label="X[21] <= -0.125\ngini = 0.007\nsamples = 3891\nvalue = [3877, 9, 0, 5, 0]"] ;
480 -> 482 ;
483 [label="X[54] <= -0.06\ngini = 0.48\nsamples = 5\nvalue = [3, 2, 0, 0, 0]"] ;
482 -> 483 ;
484 [label="gini = 0.0\nsamples = 3\nvalue = [3, 0, 0, 0, 0]"] ;
483 -> 484 ;
485 [label="gini = 0.0\nsamples = 2\nvalue = [0, 2, 0, 0, 0]"] ;
483 -> 485 ;
486 [label="X[19] <= 3.345\ngini = 0.006\nsamples = 3886\nvalue = [3874, 7, 0, 5, 0]"] ;
482 -> 486 ;
487 [label="X[10] <= -1.862\ngini = 0.004\nsamples = 3863\nvalue = [3855, 7, 0, 1, 0]"] ;
486 -> 487 ;
488 [label="X[54] <= 0.073\ngini = 0.444\nsamples = 3\nvalue = [2, 0, 0, 1, 0]"] ;
487 -> 488 ;
489 [label="gini = 0.0\nsamples = 1\nvalue = [0, 0, 0, 1, 0]"] ;
488 -> 489 ;
490 [label="gini = 0.0\nsamples = 2\nvalue = [2, 0, 0, 0, 0]"] ;
488 -> 490 ;
491 [label="X[21] <= 0.103\ngini = 0.004\nsamples = 3860\nvalue = [3853, 7, 0, 0, 0]"] ;
487 -> 491 ;
492 [label="X[21] <= 0.102\ngini = 0.085\nsamples = 90\nvalue = [86, 4, 0, 0, 0]"] ;
491 -> 492 ;
493 [label="X[26] <= 0.498\ngini = 0.045\nsamples = 87\nvalue = [85, 2, 0, 0, 0]"] ;
492 -> 493 ;
494 [label="X[46] <= 0.199\ngini = 0.023\nsamples = 86\nvalue = [85, 1, 0, 0, 0]"] ;
493 -> 494 ;
495 [label="gini = 0.0\nsamples = 83\nvalue = [83, 0, 0, 0, 0]"] ;
494 -> 495 ;
496 [label="X[32] <= 0.629\ngini = 0.444\nsamples = 3\nvalue = [2, 1, 0, 0, 0]"] ;
494 -> 496 ;
497 [label="gini = 0.0\nsamples = 1\nvalue = [0, 1, 0, 0, 0]"] ;
496 -> 497 ;
498 [label="gini = 0.0\nsamples = 2\nvalue = [2, 0, 0, 0, 0]"] ;
496 -> 498 ;
499 [label="gini = 0.0\nsamples = 1\nvalue = [0, 1, 0, 0, 0]"] ;
493 -> 499 ;
500 [label="X[20] <= -0.109\ngini = 0.444\nsamples = 3\nvalue = [1, 2, 0, 0, 0]"] ;
492 -> 500 ;
501 [label="gini = 0.0\nsamples = 1\nvalue = [1, 0, 0, 0, 0]"] ;
500 -> 501 ;
502 [label="gini = 0.0\nsamples = 2\nvalue = [0, 2, 0, 0, 0]"] ;
500 -> 502 ;
503 [label="X[57] <= 0.651\ngini = 0.002\nsamples = 3770\nvalue = [3767, 3, 0, 0, 0]"] ;
491 -> 503 ;
504 [label="X[17] <= 0.317\ngini = 0.001\nsamples = 3757\nvalue = [3755, 2, 0, 0, 0]"] ;
503 -> 504 ;
505 [label="X[47] <= 0.269\ngini = 0.001\nsamples = 3734\nvalue = [3733, 1, 0, 0, 0]"] ;
504 -> 505 ;
506 [label="gini = 0.0\nsamples = 3695\nvalue = [3695, 0, 0, 0, 0]"] ;
505 -> 506 ;
507 [label="X[47] <= 0.274\ngini = 0.05\nsamples = 39\nvalue = [38, 1, 0, 0, 0]"] ;
505 -> 507 ;
508 [label="gini = 0.0\nsamples = 1\nvalue = [0, 1, 0, 0, 0]"] ;
507 -> 508 ;
509 [label="gini = 0.0\nsamples = 38\nvalue = [38, 0, 0, 0, 0]"] ;
507 -> 509 ;
510 [label="X[50] <= -0.101\ngini = 0.083\nsamples = 23\nvalue = [22, 1, 0, 0, 0]"] ;
504 -> 510 ;
511 [label="gini = 0.0\nsamples = 1\nvalue = [0, 1, 0, 0, 0]"] ;
510 -> 511 ;
512 [label="gini = 0.0\nsamples = 22\nvalue = [22, 0, 0, 0, 0]"] ;
510 -> 512 ;
513 [label="X[35] <= 0.87\ngini = 0.142\nsamples = 13\nvalue = [12, 1, 0, 0, 0]"] ;
503 -> 513 ;
514 [label="gini = 0.0\nsamples = 12\nvalue = [12, 0, 0, 0, 0]"] ;
513 -> 514 ;
515 [label="gini = 0.0\nsamples = 1\nvalue = [0, 1, 0, 0, 0]"] ;
513 -> 515 ;
516 [label="X[52] <= -0.524\ngini = 0.287\nsamples = 23\nvalue = [19, 0, 0, 4, 0]"] ;
486 -> 516 ;
517 [label="X[48] <= 0.181\ngini = 0.375\nsamples = 4\nvalue = [1, 0, 0, 3, 0]"] ;
516 -> 517 ;
518 [label="gini = 0.0\nsamples = 1\nvalue = [1, 0, 0, 0, 0]"] ;
517 -> 518 ;
519 [label="gini = 0.0\nsamples = 3\nvalue = [0, 0, 0, 3, 0]"] ;
517 -> 519 ;
520 [label="X[18] <= -0.323\ngini = 0.1\nsamples = 19\nvalue = [18, 0, 0, 1, 0]"] ;
516 -> 520 ;
521 [label="gini = 0.0\nsamples = 1\nvalue = [0, 0, 0, 1, 0]"] ;
520 -> 521 ;
522 [label="gini = 0.0\nsamples = 18\nvalue = [18, 0, 0, 0, 0]"] ;
520 -> 522 ;
523 [label="gini = 0.0\nsamples = 2\nvalue = [0, 2, 0, 0, 0]"] ;
479 -> 523 ;
524 [label="X[20] <= -0.314\ngini = 0.432\nsamples = 196\nvalue = [137, 55, 4, 0, 0]"] ;
474 -> 524 ;
525 [label="X[57] <= 1.093\ngini = 0.055\nsamples = 106\nvalue = [103, 2, 1, 0, 0]"] ;
524 -> 525 ;
526 [label="gini = 0.0\nsamples = 100\nvalue = [100, 0, 0, 0, 0]"] ;
525 -> 526 ;
527 [label="X[21] <= 0.198\ngini = 0.611\nsamples = 6\nvalue = [3, 2, 1, 0, 0]"] ;
525 -> 527 ;
528 [label="X[4] <= -0.453\ngini = 0.444\nsamples = 3\nvalue = [0, 2, 1, 0, 0]"] ;
527 -> 528 ;
529 [label="gini = 0.0\nsamples = 1\nvalue = [0, 0, 1, 0, 0]"] ;
528 -> 529 ;
530 [label="gini = 0.0\nsamples = 2\nvalue = [0, 2, 0, 0, 0]"] ;
528 -> 530 ;
531 [label="gini = 0.0\nsamples = 3\nvalue = [3, 0, 0, 0, 0]"] ;
527 -> 531 ;
532 [label="X[56] <= 0.529\ngini = 0.509\nsamples = 90\nvalue = [34, 53, 3, 0, 0]"] ;
524 -> 532 ;
533 [label="X[38] <= -0.28\ngini = 0.145\nsamples = 39\nvalue = [1, 36, 2, 0, 0]"] ;
532 -> 533 ;
534 [label="gini = 0.0\nsamples = 2\nvalue = [0, 0, 2, 0, 0]"] ;
533 -> 534 ;
535 [label="X[18] <= 0.001\ngini = 0.053\nsamples = 37\nvalue = [1, 36, 0, 0, 0]"] ;
533 -> 535 ;
536 [label="gini = 0.0\nsamples = 1\nvalue = [1, 0, 0, 0, 0]"] ;
535 -> 536 ;
537 [label="gini = 0.0\nsamples = 36\nvalue = [0, 36, 0, 0, 0]"] ;
535 -> 537 ;
538 [label="X[52] <= -0.007\ngini = 0.47\nsamples = 51\nvalue = [33, 17, 1, 0, 0]"] ;
532 -> 538 ;
539 [label="X[28] <= -0.528\ngini = 0.234\nsamples = 23\nvalue = [20, 2, 1, 0, 0]"] ;
538 -> 539 ;
540 [label="gini = 0.0\nsamples = 1\nvalue = [0, 0, 1, 0, 0]"] ;
539 -> 540 ;
541 [label="X[17] <= -0.103\ngini = 0.165\nsamples = 22\nvalue = [20, 2, 0, 0, 0]"] ;
539 -> 541 ;
542 [label="gini = 0.0\nsamples = 1\nvalue = [0, 1, 0, 0, 0]"] ;
541 -> 542 ;
543 [label="X[28] <= 0.819\ngini = 0.091\nsamples = 21\nvalue = [20, 1, 0, 0, 0]"] ;
541 -> 543 ;
544 [label="gini = 0.0\nsamples = 19\nvalue = [19, 0, 0, 0, 0]"] ;
543 -> 544 ;
545 [label="X[7] <= -0.671\ngini = 0.5\nsamples = 2\nvalue = [1, 1, 0, 0, 0]"] ;
543 -> 545 ;
546 [label="gini = 0.0\nsamples = 1\nvalue = [1, 0, 0, 0, 0]"] ;
545 -> 546 ;
547 [label="gini = 0.0\nsamples = 1\nvalue = [0, 1, 0, 0, 0]"] ;
545 -> 547 ;
548 [label="X[30] <= 0.188\ngini = 0.497\nsamples = 28\nvalue = [13, 15, 0, 0, 0]"] ;
538 -> 548 ;
549 [label="X[51] <= 0.164\ngini = 0.198\nsamples = 9\nvalue = [8, 1, 0, 0, 0]"] ;
548 -> 549 ;
550 [label="gini = 0.0\nsamples = 8\nvalue = [8, 0, 0, 0, 0]"] ;
549 -> 550 ;
551 [label="gini = 0.0\nsamples = 1\nvalue = [0, 1, 0, 0, 0]"] ;
549 -> 551 ;
552 [label="X[9] <= -0.52\ngini = 0.388\nsamples = 19\nvalue = [5, 14, 0, 0, 0]"] ;
548 -> 552 ;
553 [label="X[21] <= 0.097\ngini = 0.133\nsamples = 14\nvalue = [1, 13, 0, 0, 0]"] ;
552 -> 553 ;
554 [label="gini = 0.0\nsamples = 1\nvalue = [1, 0, 0, 0, 0]"] ;
553 -> 554 ;
555 [label="gini = 0.0\nsamples = 13\nvalue = [0, 13, 0, 0, 0]"] ;
553 -> 555 ;
556 [label="X[32] <= 0.365\ngini = 0.32\nsamples = 5\nvalue = [4, 1, 0, 0, 0]"] ;
552 -> 556 ;
557 [label="gini = 0.0\nsamples = 1\nvalue = [0, 1, 0, 0, 0]"] ;
556 -> 557 ;
558 [label="gini = 0.0\nsamples = 4\nvalue = [4, 0, 0, 0, 0]"] ;
556 -> 558 ;
559 [label="X[21] <= 0.483\ngini = 0.455\nsamples = 186\nvalue = [122, 0, 1, 63, 0]"] ;
473 -> 559 ;
560 [label="X[51] <= -0.169\ngini = 0.388\nsamples = 76\nvalue = [20, 0, 0, 56, 0]"] ;
559 -> 560 ;
561 [label="gini = 0.0\nsamples = 8\nvalue = [8, 0, 0, 0, 0]"] ;
560 -> 561 ;
562 [label="X[47] <= -0.949\ngini = 0.291\nsamples = 68\nvalue = [12, 0, 0, 56, 0]"] ;
560 -> 562 ;
563 [label="X[24] <= 0.014\ngini = 0.155\nsamples = 59\nvalue = [5, 0, 0, 54, 0]"] ;
562 -> 563 ;
564 [label="X[48] <= 0.256\ngini = 0.32\nsamples = 5\nvalue = [4, 0, 0, 1, 0]"] ;
563 -> 564 ;
565 [label="gini = 0.0\nsamples = 1\nvalue = [0, 0, 0, 1, 0]"] ;
564 -> 565 ;
566 [label="gini = 0.0\nsamples = 4\nvalue = [4, 0, 0, 0, 0]"] ;
564 -> 566 ;
567 [label="X[57] <= 0.726\ngini = 0.036\nsamples = 54\nvalue = [1, 0, 0, 53, 0]"] ;
563 -> 567 ;
568 [label="gini = 0.0\nsamples = 53\nvalue = [0, 0, 0, 53, 0]"] ;
567 -> 568 ;
569 [label="gini = 0.0\nsamples = 1\nvalue = [1, 0, 0, 0, 0]"] ;
567 -> 569 ;
570 [label="X[12] <= -0.845\ngini = 0.346\nsamples = 9\nvalue = [7, 0, 0, 2, 0]"] ;
562 -> 570 ;
571 [label="X[44] <= -0.006\ngini = 0.444\nsamples = 3\nvalue = [1, 0, 0, 2, 0]"] ;
570 -> 571 ;
572 [label="gini = 0.0\nsamples = 1\nvalue = [1, 0, 0, 0, 0]"] ;
571 -> 572 ;
573 [label="gini = 0.0\nsamples = 2\nvalue = [0, 0, 0, 2, 0]"] ;
571 -> 573 ;
574 [label="gini = 0.0\nsamples = 6\nvalue = [6, 0, 0, 0, 0]"] ;
570 -> 574 ;
575 [label="X[40] <= -2.779\ngini = 0.136\nsamples = 110\nvalue = [102, 0, 1, 7, 0]"] ;
559 -> 575 ;
576 [label="gini = 0.0\nsamples = 3\nvalue = [0, 0, 0, 3, 0]"] ;
575 -> 576 ;
577 [label="X[36] <= 0.055\ngini = 0.09\nsamples = 107\nvalue = [102, 0, 1, 4, 0]"] ;
575 -> 577 ;
578 [label="gini = 0.0\nsamples = 93\nvalue = [93, 0, 0, 0, 0]"] ;
577 -> 578 ;
579 [label="X[23] <= 0.035\ngini = 0.5\nsamples = 14\nvalue = [9, 0, 1, 4, 0]"] ;
577 -> 579 ;
580 [label="gini = 0.0\nsamples = 4\nvalue = [0, 0, 0, 4, 0]"] ;
579 -> 580 ;
581 [label="X[29] <= 0.465\ngini = 0.18\nsamples = 10\nvalue = [9, 0, 1, 0, 0]"] ;
579 -> 581 ;
582 [label="gini = 0.0\nsamples = 1\nvalue = [0, 0, 1, 0, 0]"] ;
581 -> 582 ;
583 [label="gini = 0.0\nsamples = 9\nvalue = [9, 0, 0, 0, 0]"] ;
581 -> 583 ;
584 [label="X[57] <= 1.276\ngini = 0.066\nsamples = 42319\nvalue = [40879, 167, 847, 161, 265]"] ;
0 -> 584 [labeldistance=2.5, labelangle=-45, headlabel="False"] ;
585 [label="X[18] <= -0.566\ngini = 0.048\nsamples = 41745\nvalue = [40716, 156, 509, 161, 203]"] ;
584 -> 585 ;
586 [label="X[46] <= 0.611\ngini = 0.705\nsamples = 234\nvalue = [60, 1, 85, 71, 17]"] ;
585 -> 586 ;
587 [label="X[19] <= 5.225\ngini = 0.618\nsamples = 151\nvalue = [48, 1, 78, 8, 16]"] ;
586 -> 587 ;
588 [label="X[39] <= -0.233\ngini = 0.544\nsamples = 122\nvalue = [20, 1, 78, 7, 16]"] ;
587 -> 588 ;
589 [label="X[37] <= -3.146\ngini = 0.179\nsamples = 62\nvalue = [4, 0, 56, 2, 0]"] ;
588 -> 589 ;
590 [label="X[4] <= -3.144\ngini = 0.444\nsamples = 3\nvalue = [2, 0, 0, 1, 0]"] ;
589 -> 590 ;
591 [label="gini = 0.0\nsamples = 2\nvalue = [2, 0, 0, 0, 0]"] ;
590 -> 591 ;
592 [label="gini = 0.0\nsamples = 1\nvalue = [0, 0, 0, 1, 0]"] ;
590 -> 592 ;
593 [label="X[45] <= 0.28\ngini = 0.098\nsamples = 59\nvalue = [2, 0, 56, 1, 0]"] ;
589 -> 593 ;
594 [label="X[15] <= -0.023\ngini = 0.034\nsamples = 57\nvalue = [0, 0, 56, 1, 0]"] ;
593 -> 594 ;
595 [label="gini = 0.0\nsamples = 1\nvalue = [0, 0, 0, 1, 0]"] ;
594 -> 595 ;
596 [label="gini = 0.0\nsamples = 56\nvalue = [0, 0, 56, 0, 0]"] ;
594 -> 596 ;
597 [label="gini = 0.0\nsamples = 2\nvalue = [2, 0, 0, 0, 0]"] ;
593 -> 597 ;
598 [label="X[35] <= -1.596\ngini = 0.716\nsamples = 60\nvalue = [16, 1, 22, 5, 16]"] ;
588 -> 598 ;
599 [label="X[45] <= -0.004\ngini = 0.39\nsamples = 25\nvalue = [0, 0, 19, 4, 2]"] ;
598 -> 599 ;
600 [label="X[54] <= 0.827\ngini = 0.105\nsamples = 18\nvalue = [0, 0, 17, 1, 0]"] ;
599 -> 600 ;
601 [label="gini = 0.0\nsamples = 17\nvalue = [0, 0, 17, 0, 0]"] ;
600 -> 601 ;
602 [label="gini = 0.0\nsamples = 1\nvalue = [0, 0, 0, 1, 0]"] ;
600 -> 602 ;
603 [label="X[23] <= -0.04\ngini = 0.653\nsamples = 7\nvalue = [0, 0, 2, 3, 2]"] ;
599 -> 603 ;
604 [label="gini = 0.0\nsamples = 3\nvalue = [0, 0, 0, 3, 0]"] ;
603 -> 604 ;
605 [label="X[5] <= -0.485\ngini = 0.5\nsamples = 4\nvalue = [0, 0, 2, 0, 2]"] ;
603 -> 605 ;
606 [label="gini = 0.0\nsamples = 2\nvalue = [0, 0, 2, 0, 0]"] ;
605 -> 606 ;
607 [label="gini = 0.0\nsamples = 2\nvalue = [0, 0, 0, 0, 2]"] ;
605 -> 607 ;
608 [label="X[26] <= -0.325\ngini = 0.622\nsamples = 35\nvalue = [16, 1, 3, 1, 14]"] ;
598 -> 608 ;
609 [label="gini = 0.0\nsamples = 14\nvalue = [0, 0, 0, 0, 14]"] ;
608 -> 609 ;
610 [label="X[9] <= -4.898\ngini = 0.395\nsamples = 21\nvalue = [16, 1, 3, 1, 0]"] ;
608 -> 610 ;
611 [label="gini = 0.0\nsamples = 2\nvalue = [0, 0, 2, 0, 0]"] ;
610 -> 611 ;
612 [label="X[36] <= -1.196\ngini = 0.283\nsamples = 19\nvalue = [16, 1, 1, 1, 0]"] ;
610 -> 612 ;
613 [label="X[32] <= 0.334\ngini = 0.5\nsamples = 2\nvalue = [0, 0, 1, 1, 0]"] ;
612 -> 613 ;
614 [label="gini = 0.0\nsamples = 1\nvalue = [0, 0, 1, 0, 0]"] ;
613 -> 614 ;
615 [label="gini = 0.0\nsamples = 1\nvalue = [0, 0, 0, 1, 0]"] ;
613 -> 615 ;
616 [label="X[40] <= 17.523\ngini = 0.111\nsamples = 17\nvalue = [16, 1, 0, 0, 0]"] ;
612 -> 616 ;
617 [label="gini = 0.0\nsamples = 16\nvalue = [16, 0, 0, 0, 0]"] ;
616 -> 617 ;
618 [label="gini = 0.0\nsamples = 1\nvalue = [0, 1, 0, 0, 0]"] ;
616 -> 618 ;
619 [label="X[38] <= -0.809\ngini = 0.067\nsamples = 29\nvalue = [28, 0, 0, 1, 0]"] ;
587 -> 619 ;
620 [label="gini = 0.0\nsamples = 1\nvalue = [0, 0, 0, 1, 0]"] ;
619 -> 620 ;
621 [label="gini = 0.0\nsamples = 28\nvalue = [28, 0, 0, 0, 0]"] ;
619 -> 621 ;
622 [label="X[19] <= 2.262\ngini = 0.396\nsamples = 83\nvalue = [12, 0, 7, 63, 1]"] ;
586 -> 622 ;
623 [label="X[2] <= -1.051\ngini = 0.398\nsamples = 16\nvalue = [12, 0, 3, 0, 1]"] ;
622 -> 623 ;
624 [label="X[35] <= -3.026\ngini = 0.56\nsamples = 5\nvalue = [1, 0, 3, 0, 1]"] ;
623 -> 624 ;
625 [label="gini = 0.0\nsamples = 3\nvalue = [0, 0, 3, 0, 0]"] ;
624 -> 625 ;
626 [label="X[18] <= -1.547\ngini = 0.5\nsamples = 2\nvalue = [1, 0, 0, 0, 1]"] ;
624 -> 626 ;
627 [label="gini = 0.0\nsamples = 1\nvalue = [0, 0, 0, 0, 1]"] ;
626 -> 627 ;
628 [label="gini = 0.0\nsamples = 1\nvalue = [1, 0, 0, 0, 0]"] ;
626 -> 628 ;
629 [label="gini = 0.0\nsamples = 11\nvalue = [11, 0, 0, 0, 0]"] ;
623 -> 629 ;
630 [label="X[18] <= -1.017\ngini = 0.112\nsamples = 67\nvalue = [0, 0, 4, 63, 0]"] ;
622 -> 630 ;
631 [label="X[49] <= 0.177\ngini = 0.48\nsamples = 5\nvalue = [0, 0, 3, 2, 0]"] ;
630 -> 631 ;
632 [label="gini = 0.0\nsamples = 3\nvalue = [0, 0, 3, 0, 0]"] ;
631 -> 632 ;
633 [label="gini = 0.0\nsamples = 2\nvalue = [0, 0, 0, 2, 0]"] ;
631 -> 633 ;
634 [label="X[21] <= 0.111\ngini = 0.032\nsamples = 62\nvalue = [0, 0, 1, 61, 0]"] ;
630 -> 634 ;
635 [label="X[38] <= 1.431\ngini = 0.375\nsamples = 4\nvalue = [0, 0, 1, 3, 0]"] ;
634 -> 635 ;
636 [label="gini = 0.0\nsamples = 3\nvalue = [0, 0, 0, 3, 0]"] ;
635 -> 636 ;
637 [label="gini = 0.0\nsamples = 1\nvalue = [0, 0, 1, 0, 0]"] ;
635 -> 637 ;
638 [label="gini = 0.0\nsamples = 58\nvalue = [0, 0, 0, 58, 0]"] ;
634 -> 638 ;
639 [label="X[8] <= 1.776\ngini = 0.041\nsamples = 41511\nvalue = [40656, 155, 424, 90, 186]"] ;
585 -> 639 ;
640 [label="X[48] <= 1.993\ngini = 0.031\nsamples = 41082\nvalue = [40433, 155, 336, 83, 75]"] ;
639 -> 640 ;
641 [label="X[56] <= 2.11\ngini = 0.028\nsamples = 40962\nvalue = [40393, 155, 256, 83, 75]"] ;
640 -> 641 ;
642 [label="X[18] <= -0.291\ngini = 0.025\nsamples = 40915\nvalue = [40389, 155, 251, 82, 38]"] ;
641 -> 642 ;
643 [label="X[38] <= -0.174\ngini = 0.241\nsamples = 820\nvalue = [709, 1, 84, 23, 3]"] ;
642 -> 643 ;
644 [label="X[36] <= -0.581\ngini = 0.526\nsamples = 189\nvalue = [104, 1, 78, 6, 0]"] ;
643 -> 644 ;
645 [label="X[23] <= -0.236\ngini = 0.327\nsamples = 127\nvalue = [102, 1, 21, 3, 0]"] ;
644 -> 645 ;
646 [label="X[24] <= 0.107\ngini = 0.381\nsamples = 17\nvalue = [3, 1, 13, 0, 0]"] ;
645 -> 646 ;
647 [label="gini = 0.0\nsamples = 3\nvalue = [3, 0, 0, 0, 0]"] ;
646 -> 647 ;
648 [label="X[28] <= -0.986\ngini = 0.133\nsamples = 14\nvalue = [0, 1, 13, 0, 0]"] ;
646 -> 648 ;
649 [label="gini = 0.0\nsamples = 13\nvalue = [0, 0, 13, 0, 0]"] ;
648 -> 649 ;
650 [label="gini = 0.0\nsamples = 1\nvalue = [0, 1, 0, 0, 0]"] ;
648 -> 650 ;
651 [label="X[6] <= -6.379\ngini = 0.184\nsamples = 110\nvalue = [99, 0, 8, 3, 0]"] ;
645 -> 651 ;
652 [label="gini = 0.0\nsamples = 3\nvalue = [0, 0, 3, 0, 0]"] ;
651 -> 652 ;
653 [label="X[20] <= -1.424\ngini = 0.141\nsamples = 107\nvalue = [99, 0, 5, 3, 0]"] ;
651 -> 653 ;
654 [label="X[5] <= -2.534\ngini = 0.5\nsamples = 2\nvalue = [0, 0, 1, 1, 0]"] ;
653 -> 654 ;
655 [label="gini = 0.0\nsamples = 1\nvalue = [0, 0, 1, 0, 0]"] ;
654 -> 655 ;
656 [label="gini = 0.0\nsamples = 1\nvalue = [0, 0, 0, 1, 0]"] ;
654 -> 656 ;
657 [label="X[13] <= 2.176\ngini = 0.109\nsamples = 105\nvalue = [99, 0, 4, 2, 0]"] ;
653 -> 657 ;
658 [label="X[8] <= 0.778\ngini = 0.092\nsamples = 104\nvalue = [99, 0, 4, 1, 0]"] ;
657 -> 658 ;
659 [label="X[7] <= -5.23\ngini = 0.075\nsamples = 103\nvalue = [99, 0, 3, 1, 0]"] ;
658 -> 659 ;
660 [label="X[39] <= -3.172\ngini = 0.5\nsamples = 2\nvalue = [1, 0, 0, 1, 0]"] ;
659 -> 660 ;
661 [label="gini = 0.0\nsamples = 1\nvalue = [1, 0, 0, 0, 0]"] ;
660 -> 661 ;
662 [label="gini = 0.0\nsamples = 1\nvalue = [0, 0, 0, 1, 0]"] ;
660 -> 662 ;
663 [label="X[36] <= -5.362\ngini = 0.058\nsamples = 101\nvalue = [98, 0, 3, 0, 0]"] ;
659 -> 663 ;
664 [label="X[26] <= -0.009\ngini = 0.32\nsamples = 10\nvalue = [8, 0, 2, 0, 0]"] ;
663 -> 664 ;
665 [label="X[42] <= 0.005\ngini = 0.444\nsamples = 3\nvalue = [1, 0, 2, 0, 0]"] ;
664 -> 665 ;
666 [label="gini = 0.0\nsamples = 2\nvalue = [0, 0, 2, 0, 0]"] ;
665 -> 666 ;
667 [label="gini = 0.0\nsamples = 1\nvalue = [1, 0, 0, 0, 0]"] ;
665 -> 667 ;
668 [label="gini = 0.0\nsamples = 7\nvalue = [7, 0, 0, 0, 0]"] ;
664 -> 668 ;
669 [label="X[22] <= 0.267\ngini = 0.022\nsamples = 91\nvalue = [90, 0, 1, 0, 0]"] ;
663 -> 669 ;
670 [label="gini = 0.0\nsamples = 89\nvalue = [89, 0, 0, 0, 0]"] ;
669 -> 670 ;
671 [label="X[50] <= -0.014\ngini = 0.5\nsamples = 2\nvalue = [1, 0, 1, 0, 0]"] ;
669 -> 671 ;
672 [label="gini = 0.0\nsamples = 1\nvalue = [0, 0, 1, 0, 0]"] ;
671 -> 672 ;
673 [label="gini = 0.0\nsamples = 1\nvalue = [1, 0, 0, 0, 0]"] ;
671 -> 673 ;
674 [label="gini = 0.0\nsamples = 1\nvalue = [0, 0, 1, 0, 0]"] ;
658 -> 674 ;
675 [label="gini = 0.0\nsamples = 1\nvalue = [0, 0, 0, 1, 0]"] ;
657 -> 675 ;
676 [label="X[52] <= -0.166\ngini = 0.151\nsamples = 62\nvalue = [2, 0, 57, 3, 0]"] ;
644 -> 676 ;
677 [label="X[36] <= 1.034\ngini = 0.56\nsamples = 5\nvalue = [1, 0, 1, 3, 0]"] ;
676 -> 677 ;
678 [label="gini = 0.0\nsamples = 3\nvalue = [0, 0, 0, 3, 0]"] ;
677 -> 678 ;
679 [label="X[12] <= -1.398\ngini = 0.5\nsamples = 2\nvalue = [1, 0, 1, 0, 0]"] ;
677 -> 679 ;
680 [label="gini = 0.0\nsamples = 1\nvalue = [0, 0, 1, 0, 0]"] ;
679 -> 680 ;
681 [label="gini = 0.0\nsamples = 1\nvalue = [1, 0, 0, 0, 0]"] ;
679 -> 681 ;
682 [label="X[47] <= -0.576\ngini = 0.034\nsamples = 57\nvalue = [1, 0, 56, 0, 0]"] ;
676 -> 682 ;
683 [label="gini = 0.0\nsamples = 1\nvalue = [1, 0, 0, 0, 0]"] ;
682 -> 683 ;
684 [label="gini = 0.0\nsamples = 56\nvalue = [0, 0, 56, 0, 0]"] ;
682 -> 684 ;
685 [label="X[56] <= 0.615\ngini = 0.08\nsamples = 631\nvalue = [605, 0, 6, 17, 3]"] ;
643 -> 685 ;
686 [label="X[19] <= 3.711\ngini = 0.46\nsamples = 19\nvalue = [5, 0, 1, 13, 0]"] ;
685 -> 686 ;
687 [label="X[2] <= -2.204\ngini = 0.278\nsamples = 6\nvalue = [5, 0, 1, 0, 0]"] ;
686 -> 687 ;
688 [label="gini = 0.0\nsamples = 1\nvalue = [0, 0, 1, 0, 0]"] ;
687 -> 688 ;
689 [label="gini = 0.0\nsamples = 5\nvalue = [5, 0, 0, 0, 0]"] ;
687 -> 689 ;
690 [label="gini = 0.0\nsamples = 13\nvalue = [0, 0, 0, 13, 0]"] ;
686 -> 690 ;
691 [label="X[11] <= -4.962\ngini = 0.039\nsamples = 612\nvalue = [600, 0, 5, 4, 3]"] ;
685 -> 691 ;
692 [label="X[25] <= 0.085\ngini = 0.469\nsamples = 8\nvalue = [5, 0, 0, 0, 3]"] ;
691 -> 692 ;
693 [label="gini = 0.0\nsamples = 5\nvalue = [5, 0, 0, 0, 0]"] ;
692 -> 693 ;
694 [label="gini = 0.0\nsamples = 3\nvalue = [0, 0, 0, 0, 3]"] ;
692 -> 694 ;
695 [label="X[35] <= 3.843\ngini = 0.029\nsamples = 604\nvalue = [595, 0, 5, 4, 0]"] ;
691 -> 695 ;
696 [label="X[56] <= 0.654\ngini = 0.02\nsamples = 593\nvalue = [587, 0, 2, 4, 0]"] ;
695 -> 696 ;
697 [label="X[37] <= 1.243\ngini = 0.298\nsamples = 22\nvalue = [18, 0, 0, 4, 0]"] ;
696 -> 697 ;
698 [label="gini = 0.0\nsamples = 18\nvalue = [18, 0, 0, 0, 0]"] ;
697 -> 698 ;
699 [label="gini = 0.0\nsamples = 4\nvalue = [0, 0, 0, 4, 0]"] ;
697 -> 699 ;
700 [label="X[11] <= -3.643\ngini = 0.007\nsamples = 571\nvalue = [569, 0, 2, 0, 0]"] ;
696 -> 700 ;
701 [label="X[7] <= 3.168\ngini = 0.375\nsamples = 4\nvalue = [3, 0, 1, 0, 0]"] ;
700 -> 701 ;
702 [label="gini = 0.0\nsamples = 3\nvalue = [3, 0, 0, 0, 0]"] ;
701 -> 702 ;
703 [label="gini = 0.0\nsamples = 1\nvalue = [0, 0, 1, 0, 0]"] ;
701 -> 703 ;
704 [label="X[28] <= -1.259\ngini = 0.004\nsamples = 567\nvalue = [566, 0, 1, 0, 0]"] ;
700 -> 704 ;
705 [label="X[22] <= -0.011\ngini = 0.133\nsamples = 14\nvalue = [13, 0, 1, 0, 0]"] ;
704 -> 705 ;
706 [label="gini = 0.0\nsamples = 1\nvalue = [0, 0, 1, 0, 0]"] ;
705 -> 706 ;
707 [label="gini = 0.0\nsamples = 13\nvalue = [13, 0, 0, 0, 0]"] ;
705 -> 707 ;
708 [label="gini = 0.0\nsamples = 553\nvalue = [553, 0, 0, 0, 0]"] ;
704 -> 708 ;
709 [label="X[46] <= -0.151\ngini = 0.397\nsamples = 11\nvalue = [8, 0, 3, 0, 0]"] ;
695 -> 709 ;
710 [label="gini = 0.0\nsamples = 3\nvalue = [0, 0, 3, 0, 0]"] ;
709 -> 710 ;
711 [label="gini = 0.0\nsamples = 8\nvalue = [8, 0, 0, 0, 0]"] ;
709 -> 711 ;
712 [label="X[48] <= -1.832\ngini = 0.021\nsamples = 40095\nvalue = [39680, 154, 167, 59, 35]"] ;
642 -> 712 ;
713 [label="X[56] <= 0.731\ngini = 0.485\nsamples = 20\nvalue = [6, 0, 13, 1, 0]"] ;
712 -> 713 ;
714 [label="X[7] <= 3.106\ngini = 0.142\nsamples = 13\nvalue = [0, 0, 12, 1, 0]"] ;
713 -> 714 ;
715 [label="gini = 0.0\nsamples = 12\nvalue = [0, 0, 12, 0, 0]"] ;
714 -> 715 ;
716 [label="gini = 0.0\nsamples = 1\nvalue = [0, 0, 0, 1, 0]"] ;
714 -> 716 ;
717 [label="X[9] <= -6.024\ngini = 0.245\nsamples = 7\nvalue = [6, 0, 1, 0, 0]"] ;
713 -> 717 ;
718 [label="gini = 0.0\nsamples = 1\nvalue = [0, 0, 1, 0, 0]"] ;
717 -> 718 ;
719 [label="gini = 0.0\nsamples = 6\nvalue = [6, 0, 0, 0, 0]"] ;
717 -> 719 ;
720 [label="X[56] <= 0.638\ngini = 0.02\nsamples = 40075\nvalue = [39674, 154, 154, 58, 35]"] ;
712 -> 720 ;
721 [label="X[48] <= -0.165\ngini = 0.139\nsamples = 2179\nvalue = [2019, 69, 62, 29, 0]"] ;
720 -> 721 ;
722 [label="X[8] <= -6.082\ngini = 0.613\nsamples = 101\nvalue = [17, 34, 50, 0, 0]"] ;
721 -> 722 ;
723 [label="gini = 0.0\nsamples = 28\nvalue = [0, 28, 0, 0, 0]"] ;
722 -> 723 ;
724 [label="X[9] <= -2.776\ngini = 0.47\nsamples = 73\nvalue = [17, 6, 50, 0, 0]"] ;
722 -> 724 ;
725 [label="X[17] <= -0.156\ngini = 0.165\nsamples = 45\nvalue = [1, 3, 41, 0, 0]"] ;
724 -> 725 ;
726 [label="gini = 0.0\nsamples = 3\nvalue = [0, 3, 0, 0, 0]"] ;
725 -> 726 ;
727 [label="X[42] <= -0.002\ngini = 0.046\nsamples = 42\nvalue = [1, 0, 41, 0, 0]"] ;
725 -> 727 ;
728 [label="gini = 0.0\nsamples = 1\nvalue = [1, 0, 0, 0, 0]"] ;
727 -> 728 ;
729 [label="gini = 0.0\nsamples = 41\nvalue = [0, 0, 41, 0, 0]"] ;
727 -> 729 ;
730 [label="X[57] <= 0.81\ngini = 0.559\nsamples = 28\nvalue = [16, 3, 9, 0, 0]"] ;
724 -> 730 ;
731 [label="X[36] <= 1.198\ngini = 0.204\nsamples = 18\nvalue = [16, 1, 1, 0, 0]"] ;
730 -> 731 ;
732 [label="gini = 0.0\nsamples = 16\nvalue = [16, 0, 0, 0, 0]"] ;
731 -> 732 ;
733 [label="X[20] <= 0.65\ngini = 0.5\nsamples = 2\nvalue = [0, 1, 1, 0, 0]"] ;
731 -> 733 ;
734 [label="gini = 0.0\nsamples = 1\nvalue = [0, 0, 1, 0, 0]"] ;
733 -> 734 ;
735 [label="gini = 0.0\nsamples = 1\nvalue = [0, 1, 0, 0, 0]"] ;
733 -> 735 ;
736 [label="X[30] <= -0.8\ngini = 0.32\nsamples = 10\nvalue = [0, 2, 8, 0, 0]"] ;
730 -> 736 ;
737 [label="gini = 0.0\nsamples = 2\nvalue = [0, 2, 0, 0, 0]"] ;
736 -> 737 ;
738 [label="gini = 0.0\nsamples = 8\nvalue = [0, 0, 8, 0, 0]"] ;
736 -> 738 ;
739 [label="X[27] <= -0.219\ngini = 0.071\nsamples = 2078\nvalue = [2002, 35, 12, 29, 0]"] ;
721 -> 739 ;
740 [label="X[2] <= -2.74\ngini = 0.53\nsamples = 95\nvalue = [60, 24, 7, 4, 0]"] ;
739 -> 740 ;
741 [label="X[20] <= -0.33\ngini = 0.441\nsamples = 31\nvalue = [7, 22, 2, 0, 0]"] ;
740 -> 741 ;
742 [label="X[8] <= -1.518\ngini = 0.512\nsamples = 11\nvalue = [7, 3, 1, 0, 0]"] ;
741 -> 742 ;
743 [label="gini = 0.0\nsamples = 7\nvalue = [7, 0, 0, 0, 0]"] ;
742 -> 743 ;
744 [label="X[11] <= -4.321\ngini = 0.375\nsamples = 4\nvalue = [0, 3, 1, 0, 0]"] ;
742 -> 744 ;
745 [label="gini = 0.0\nsamples = 1\nvalue = [0, 0, 1, 0, 0]"] ;
744 -> 745 ;
746 [label="gini = 0.0\nsamples = 3\nvalue = [0, 3, 0, 0, 0]"] ;
744 -> 746 ;
747 [label="X[19] <= 1.649\ngini = 0.095\nsamples = 20\nvalue = [0, 19, 1, 0, 0]"] ;
741 -> 747 ;
748 [label="gini = 0.0\nsamples = 1\nvalue = [0, 0, 1, 0, 0]"] ;
747 -> 748 ;
749 [label="gini = 0.0\nsamples = 19\nvalue = [0, 19, 0, 0, 0]"] ;
747 -> 749 ;
750 [label="X[20] <= -1.528\ngini = 0.303\nsamples = 64\nvalue = [53, 2, 5, 4, 0]"] ;
740 -> 750 ;
751 [label="X[51] <= -0.116\ngini = 0.32\nsamples = 5\nvalue = [1, 0, 0, 4, 0]"] ;
750 -> 751 ;
752 [label="gini = 0.0\nsamples = 1\nvalue = [1, 0, 0, 0, 0]"] ;
751 -> 752 ;
753 [label="gini = 0.0\nsamples = 4\nvalue = [0, 0, 0, 4, 0]"] ;
751 -> 753 ;
754 [label="X[22] <= 0.337\ngini = 0.215\nsamples = 59\nvalue = [52, 2, 5, 0, 0]"] ;
750 -> 754 ;
755 [label="X[11] <= 1.357\ngini = 0.106\nsamples = 54\nvalue = [51, 2, 1, 0, 0]"] ;
754 -> 755 ;
756 [label="X[19] <= 4.464\ngini = 0.073\nsamples = 53\nvalue = [51, 2, 0, 0, 0]"] ;
755 -> 756 ;
757 [label="X[48] <= 1.455\ngini = 0.038\nsamples = 52\nvalue = [51, 1, 0, 0, 0]"] ;
756 -> 757 ;
758 [label="gini = 0.0\nsamples = 50\nvalue = [50, 0, 0, 0, 0]"] ;
757 -> 758 ;
759 [label="X[37] <= -0.085\ngini = 0.5\nsamples = 2\nvalue = [1, 1, 0, 0, 0]"] ;
757 -> 759 ;
760 [label="gini = 0.0\nsamples = 1\nvalue = [0, 1, 0, 0, 0]"] ;
759 -> 760 ;
761 [label="gini = 0.0\nsamples = 1\nvalue = [1, 0, 0, 0, 0]"] ;
759 -> 761 ;
762 [label="gini = 0.0\nsamples = 1\nvalue = [0, 1, 0, 0, 0]"] ;
756 -> 762 ;
763 [label="gini = 0.0\nsamples = 1\nvalue = [0, 0, 1, 0, 0]"] ;
755 -> 763 ;
764 [label="X[52] <= -0.013\ngini = 0.32\nsamples = 5\nvalue = [1, 0, 4, 0, 0]"] ;
754 -> 764 ;
765 [label="gini = 0.0\nsamples = 1\nvalue = [1, 0, 0, 0, 0]"] ;
764 -> 765 ;
766 [label="gini = 0.0\nsamples = 4\nvalue = [0, 0, 4, 0, 0]"] ;
764 -> 766 ;
767 [label="X[20] <= 0.835\ngini = 0.041\nsamples = 1983\nvalue = [1942, 11, 5, 25, 0]"] ;
739 -> 767 ;
768 [label="X[52] <= -0.276\ngini = 0.036\nsamples = 1978\nvalue = [1942, 6, 5, 25, 0]"] ;
767 -> 768 ;
769 [label="X[8] <= -0.208\ngini = 0.391\nsamples = 75\nvalue = [55, 0, 0, 20, 0]"] ;
768 -> 769 ;
770 [label="X[30] <= 2.796\ngini = 0.111\nsamples = 51\nvalue = [48, 0, 0, 3, 0]"] ;
769 -> 770 ;
771 [label="X[19] <= 3.546\ngini = 0.077\nsamples = 50\nvalue = [48, 0, 0, 2, 0]"] ;
770 -> 771 ;
772 [label="gini = 0.0\nsamples = 40\nvalue = [40, 0, 0, 0, 0]"] ;
771 -> 772 ;
773 [label="X[19] <= 3.705\ngini = 0.32\nsamples = 10\nvalue = [8, 0, 0, 2, 0]"] ;
771 -> 773 ;
774 [label="gini = 0.0\nsamples = 2\nvalue = [0, 0, 0, 2, 0]"] ;
773 -> 774 ;
775 [label="gini = 0.0\nsamples = 8\nvalue = [8, 0, 0, 0, 0]"] ;
773 -> 775 ;
776 [label="gini = 0.0\nsamples = 1\nvalue = [0, 0, 0, 1, 0]"] ;
770 -> 776 ;
777 [label="X[39] <= 0.378\ngini = 0.413\nsamples = 24\nvalue = [7, 0, 0, 17, 0]"] ;
769 -> 777 ;
778 [label="gini = 0.0\nsamples = 5\nvalue = [5, 0, 0, 0, 0]"] ;
777 -> 778 ;
779 [label="X[21] <= 0.559\ngini = 0.188\nsamples = 19\nvalue = [2, 0, 0, 17, 0]"] ;
777 -> 779 ;
780 [label="gini = 0.0\nsamples = 17\nvalue = [0, 0, 0, 17, 0]"] ;
779 -> 780 ;
781 [label="gini = 0.0\nsamples = 2\nvalue = [2, 0, 0, 0, 0]"] ;
779 -> 781 ;
782 [label="X[48] <= 1.466\ngini = 0.017\nsamples = 1903\nvalue = [1887, 6, 5, 5, 0]"] ;
768 -> 782 ;
783 [label="X[20] <= -1.725\ngini = 0.013\nsamples = 1894\nvalue = [1882, 3, 4, 5, 0]"] ;
782 -> 783 ;
784 [label="gini = 0.0\nsamples = 2\nvalue = [0, 0, 2, 0, 0]"] ;
783 -> 784 ;
785 [label="X[57] <= 1.19\ngini = 0.011\nsamples = 1892\nvalue = [1882, 3, 2, 5, 0]"] ;
783 -> 785 ;
786 [label="X[11] <= 2.476\ngini = 0.009\nsamples = 1891\nvalue = [1882, 3, 1, 5, 0]"] ;
785 -> 786 ;
787 [label="X[47] <= -2.742\ngini = 0.008\nsamples = 1890\nvalue = [1882, 3, 0, 5, 0]"] ;
786 -> 787 ;
788 [label="X[26] <= -0.088\ngini = 0.5\nsamples = 2\nvalue = [1, 0, 0, 1, 0]"] ;
787 -> 788 ;
789 [label="gini = 0.0\nsamples = 1\nvalue = [1, 0, 0, 0, 0]"] ;
788 -> 789 ;
790 [label="gini = 0.0\nsamples = 1\nvalue = [0, 0, 0, 1, 0]"] ;
788 -> 790 ;
791 [label="X[57] <= 0.49\ngini = 0.007\nsamples = 1888\nvalue = [1881, 3, 0, 4, 0]"] ;
787 -> 791 ;
792 [label="X[18] <= 0.438\ngini = 0.085\nsamples = 91\nvalue = [87, 1, 0, 3, 0]"] ;
791 -> 792 ;
793 [label="X[19] <= 4.01\ngini = 0.064\nsamples = 90\nvalue = [87, 0, 0, 3, 0]"] ;
792 -> 793 ;
794 [label="X[57] <= 0.487\ngini = 0.023\nsamples = 86\nvalue = [85, 0, 0, 1, 0]"] ;
793 -> 794 ;
795 [label="gini = 0.0\nsamples = 82\nvalue = [82, 0, 0, 0, 0]"] ;
794 -> 795 ;
796 [label="X[1] <= -1.682\ngini = 0.375\nsamples = 4\nvalue = [3, 0, 0, 1, 0]"] ;
794 -> 796 ;
797 [label="gini = 0.0\nsamples = 1\nvalue = [0, 0, 0, 1, 0]"] ;
796 -> 797 ;
798 [label="gini = 0.0\nsamples = 3\nvalue = [3, 0, 0, 0, 0]"] ;
796 -> 798 ;
799 [label="X[36] <= -0.609\ngini = 0.5\nsamples = 4\nvalue = [2, 0, 0, 2, 0]"] ;
793 -> 799 ;
800 [label="gini = 0.0\nsamples = 2\nvalue = [2, 0, 0, 0, 0]"] ;
799 -> 800 ;
801 [label="gini = 0.0\nsamples = 2\nvalue = [0, 0, 0, 2, 0]"] ;
799 -> 801 ;
802 [label="gini = 0.0\nsamples = 1\nvalue = [0, 1, 0, 0, 0]"] ;
792 -> 802 ;
803 [label="X[57] <= 0.729\ngini = 0.003\nsamples = 1797\nvalue = [1794, 2, 0, 1, 0]"] ;
791 -> 803 ;
804 [label="X[35] <= -2.954\ngini = 0.001\nsamples = 1707\nvalue = [1706, 0, 0, 1, 0]"] ;
803 -> 804 ;
805 [label="X[35] <= -2.962\ngini = 0.036\nsamples = 54\nvalue = [53, 0, 0, 1, 0]"] ;
804 -> 805 ;
806 [label="gini = 0.0\nsamples = 53\nvalue = [53, 0, 0, 0, 0]"] ;
805 -> 806 ;
807 [label="gini = 0.0\nsamples = 1\nvalue = [0, 0, 0, 1, 0]"] ;
805 -> 807 ;
808 [label="gini = 0.0\nsamples = 1653\nvalue = [1653, 0, 0, 0, 0]"] ;
804 -> 808 ;
809 [label="X[20] <= -0.249\ngini = 0.043\nsamples = 90\nvalue = [88, 2, 0, 0, 0]"] ;
803 -> 809 ;
810 [label="gini = 0.0\nsamples = 82\nvalue = [82, 0, 0, 0, 0]"] ;
809 -> 810 ;
811 [label="X[23] <= 0.16\ngini = 0.375\nsamples = 8\nvalue = [6, 2, 0, 0, 0]"] ;
809 -> 811 ;
812 [label="gini = 0.0\nsamples = 6\nvalue = [6, 0, 0, 0, 0]"] ;
811 -> 812 ;
813 [label="gini = 0.0\nsamples = 2\nvalue = [0, 2, 0, 0, 0]"] ;
811 -> 813 ;
814 [label="gini = 0.0\nsamples = 1\nvalue = [0, 0, 1, 0, 0]"] ;
786 -> 814 ;
815 [label="gini = 0.0\nsamples = 1\nvalue = [0, 0, 1, 0, 0]"] ;
785 -> 815 ;
816 [label="X[22] <= -0.03\ngini = 0.568\nsamples = 9\nvalue = [5, 3, 1, 0, 0]"] ;
782 -> 816 ;
817 [label="X[2] <= -5.826\ngini = 0.375\nsamples = 4\nvalue = [0, 3, 1, 0, 0]"] ;
816 -> 817 ;
818 [label="gini = 0.0\nsamples = 1\nvalue = [0, 0, 1, 0, 0]"] ;
817 -> 818 ;
819 [label="gini = 0.0\nsamples = 3\nvalue = [0, 3, 0, 0, 0]"] ;
817 -> 819 ;
820 [label="gini = 0.0\nsamples = 5\nvalue = [5, 0, 0, 0, 0]"] ;
816 -> 820 ;
821 [label="gini = 0.0\nsamples = 5\nvalue = [0, 5, 0, 0, 0]"] ;
767 -> 821 ;
822 [label="X[19] <= -3.429\ngini = 0.013\nsamples = 37896\nvalue = [37655, 85, 92, 29, 35]"] ;
720 -> 822 ;
823 [label="X[46] <= -0.23\ngini = 0.569\nsamples = 12\nvalue = [5, 0, 6, 0, 1]"] ;
822 -> 823 ;
824 [label="gini = 0.0\nsamples = 6\nvalue = [0, 0, 6, 0, 0]"] ;
823 -> 824 ;
825 [label="X[29] <= 0.769\ngini = 0.278\nsamples = 6\nvalue = [5, 0, 0, 0, 1]"] ;
823 -> 825 ;
826 [label="gini = 0.0\nsamples = 1\nvalue = [0, 0, 0, 0, 1]"] ;
825 -> 826 ;
827 [label="gini = 0.0\nsamples = 5\nvalue = [5, 0, 0, 0, 0]"] ;
825 -> 827 ;
828 [label="X[49] <= 0.138\ngini = 0.012\nsamples = 37884\nvalue = [37650, 85, 86, 29, 34]"] ;
822 -> 828 ;
829 [label="X[17] <= 1.063\ngini = 0.009\nsamples = 35312\nvalue = [35158, 78, 20, 28, 28]"] ;
828 -> 829 ;
830 [label="X[57] <= 0.333\ngini = 0.009\nsamples = 35311\nvalue = [35158, 78, 20, 28, 27]"] ;
829 -> 830 ;
831 [label="gini = 0.0\nsamples = 1\nvalue = [0, 0, 0, 1, 0]"] ;
830 -> 831 ;
832 [label="X[10] <= -8.73\ngini = 0.009\nsamples = 35310\nvalue = [35158, 78, 20, 27, 27]"] ;
830 -> 832 ;
833 [label="X[8] <= -5.576\ngini = 0.129\nsamples = 144\nvalue = [134, 10, 0, 0, 0]"] ;
832 -> 833 ;
834 [label="X[53] <= 0.118\ngini = 0.095\nsamples = 140\nvalue = [133, 7, 0, 0, 0]"] ;
833 -> 834 ;
835 [label="X[25] <= -0.269\ngini = 0.017\nsamples = 119\nvalue = [118, 1, 0, 0, 0]"] ;
834 -> 835 ;
836 [label="gini = 0.0\nsamples = 1\nvalue = [0, 1, 0, 0, 0]"] ;
835 -> 836 ;
837 [label="gini = 0.0\nsamples = 118\nvalue = [118, 0, 0, 0, 0]"] ;
835 -> 837 ;
838 [label="X[8] <= -6.914\ngini = 0.408\nsamples = 21\nvalue = [15, 6, 0, 0, 0]"] ;
834 -> 838 ;
839 [label="gini = 0.0\nsamples = 12\nvalue = [12, 0, 0, 0, 0]"] ;
838 -> 839 ;
840 [label="X[57] <= 1.036\ngini = 0.444\nsamples = 9\nvalue = [3, 6, 0, 0, 0]"] ;
838 -> 840 ;
841 [label="gini = 0.0\nsamples = 6\nvalue = [0, 6, 0, 0, 0]"] ;
840 -> 841 ;
842 [label="gini = 0.0\nsamples = 3\nvalue = [3, 0, 0, 0, 0]"] ;
840 -> 842 ;
843 [label="X[12] <= -4.634\ngini = 0.375\nsamples = 4\nvalue = [1, 3, 0, 0, 0]"] ;
833 -> 843 ;
844 [label="gini = 0.0\nsamples = 3\nvalue = [0, 3, 0, 0, 0]"] ;
843 -> 844 ;
845 [label="gini = 0.0\nsamples = 1\nvalue = [1, 0, 0, 0, 0]"] ;
843 -> 845 ;
846 [label="X[7] <= -9.704\ngini = 0.008\nsamples = 35166\nvalue = [35024, 68, 20, 27, 27]"] ;
832 -> 846 ;
847 [label="X[28] <= -0.794\ngini = 0.5\nsamples = 4\nvalue = [2, 0, 2, 0, 0]"] ;
846 -> 847 ;
848 [label="gini = 0.0\nsamples = 2\nvalue = [0, 0, 2, 0, 0]"] ;
847 -> 848 ;
849 [label="gini = 0.0\nsamples = 2\nvalue = [2, 0, 0, 0, 0]"] ;
847 -> 849 ;
850 [label="X[8] <= 1.137\ngini = 0.008\nsamples = 35162\nvalue = [35022, 68, 18, 27, 27]"] ;
846 -> 850 ;
851 [label="X[56] <= 0.665\ngini = 0.007\nsamples = 34968\nvalue = [34840, 67, 18, 25, 18]"] ;
850 -> 851 ;
852 [label="X[21] <= -0.333\ngini = 0.036\nsamples = 2300\nvalue = [2258, 27, 4, 11, 0]"] ;
851 -> 852 ;
853 [label="X[18] <= 0.11\ngini = 0.413\nsamples = 24\nvalue = [7, 17, 0, 0, 0]"] ;
852 -> 853 ;
854 [label="gini = 0.0\nsamples = 7\nvalue = [7, 0, 0, 0, 0]"] ;
853 -> 854 ;
855 [label="gini = 0.0\nsamples = 17\nvalue = [0, 17, 0, 0, 0]"] ;
853 -> 855 ;
856 [label="X[57] <= 1.0\ngini = 0.022\nsamples = 2276\nvalue = [2251, 10, 4, 11, 0]"] ;
852 -> 856 ;
857 [label="X[48] <= -0.497\ngini = 0.017\nsamples = 2261\nvalue = [2242, 4, 4, 11, 0]"] ;
856 -> 857 ;
858 [label="X[42] <= 0.001\ngini = 0.375\nsamples = 4\nvalue = [1, 0, 3, 0, 0]"] ;
857 -> 858 ;
859 [label="gini = 0.0\nsamples = 3\nvalue = [0, 0, 3, 0, 0]"] ;
858 -> 859 ;
860 [label="gini = 0.0\nsamples = 1\nvalue = [1, 0, 0, 0, 0]"] ;
858 -> 860 ;
861 [label="X[35] <= 13.498\ngini = 0.014\nsamples = 2257\nvalue = [2241, 4, 1, 11, 0]"] ;
857 -> 861 ;
862 [label="X[18] <= 0.692\ngini = 0.013\nsamples = 2256\nvalue = [2241, 4, 0, 11, 0]"] ;
861 -> 862 ;
863 [label="X[53] <= 0.558\ngini = 0.012\nsamples = 2255\nvalue = [2241, 4, 0, 10, 0]"] ;
862 -> 863 ;
864 [label="X[48] <= 1.464\ngini = 0.009\nsamples = 2235\nvalue = [2225, 3, 0, 7, 0]"] ;
863 -> 864 ;
865 [label="X[20] <= -0.716\ngini = 0.006\nsamples = 2196\nvalue = [2189, 0, 0, 7, 0]"] ;
864 -> 865 ;
866 [label="X[20] <= -0.72\ngini = 0.052\nsamples = 263\nvalue = [256, 0, 0, 7, 0]"] ;
865 -> 866 ;
867 [label="X[8] <= -0.508\ngini = 0.03\nsamples = 260\nvalue = [256, 0, 0, 4, 0]"] ;
866 -> 867 ;
868 [label="gini = 0.0\nsamples = 220\nvalue = [220, 0, 0, 0, 0]"] ;
867 -> 868 ;
869 [label="X[10] <= -2.156\ngini = 0.18\nsamples = 40\nvalue = [36, 0, 0, 4, 0]"] ;
867 -> 869 ;
870 [label="X[52] <= 0.03\ngini = 0.32\nsamples = 5\nvalue = [1, 0, 0, 4, 0]"] ;
869 -> 870 ;
871 [label="gini = 0.0\nsamples = 4\nvalue = [0, 0, 0, 4, 0]"] ;
870 -> 871 ;
872 [label="gini = 0.0\nsamples = 1\nvalue = [1, 0, 0, 0, 0]"] ;
870 -> 872 ;
873 [label="gini = 0.0\nsamples = 35\nvalue = [35, 0, 0, 0, 0]"] ;
869 -> 873 ;
874 [label="gini = 0.0\nsamples = 3\nvalue = [0, 0, 0, 3, 0]"] ;
866 -> 874 ;
875 [label="gini = 0.0\nsamples = 1933\nvalue = [1933, 0, 0, 0, 0]"] ;
865 -> 875 ;
876 [label="X[57] <= 0.728\ngini = 0.142\nsamples = 39\nvalue = [36, 3, 0, 0, 0]"] ;
864 -> 876 ;
877 [label="gini = 0.0\nsamples = 34\nvalue = [34, 0, 0, 0, 0]"] ;
876 -> 877 ;
878 [label="X[4] <= -1.565\ngini = 0.48\nsamples = 5\nvalue = [2, 3, 0, 0, 0]"] ;
876 -> 878 ;
879 [label="gini = 0.0\nsamples = 3\nvalue = [0, 3, 0, 0, 0]"] ;
878 -> 879 ;
880 [label="gini = 0.0\nsamples = 2\nvalue = [2, 0, 0, 0, 0]"] ;
878 -> 880 ;
881 [label="X[19] <= 3.795\ngini = 0.335\nsamples = 20\nvalue = [16, 1, 0, 3, 0]"] ;
863 -> 881 ;
882 [label="X[48] <= -0.026\ngini = 0.111\nsamples = 17\nvalue = [16, 1, 0, 0, 0]"] ;
881 -> 882 ;
883 [label="gini = 0.0\nsamples = 1\nvalue = [0, 1, 0, 0, 0]"] ;
882 -> 883 ;
884 [label="gini = 0.0\nsamples = 16\nvalue = [16, 0, 0, 0, 0]"] ;
882 -> 884 ;
885 [label="gini = 0.0\nsamples = 3\nvalue = [0, 0, 0, 3, 0]"] ;
881 -> 885 ;
886 [label="gini = 0.0\nsamples = 1\nvalue = [0, 0, 0, 1, 0]"] ;
862 -> 886 ;
887 [label="gini = 0.0\nsamples = 1\nvalue = [0, 0, 1, 0, 0]"] ;
861 -> 887 ;
888 [label="X[47] <= -0.716\ngini = 0.48\nsamples = 15\nvalue = [9, 6, 0, 0, 0]"] ;
856 -> 888 ;
889 [label="gini = 0.0\nsamples = 9\nvalue = [9, 0, 0, 0, 0]"] ;
888 -> 889 ;
890 [label="gini = 0.0\nsamples = 6\nvalue = [0, 6, 0, 0, 0]"] ;
888 -> 890 ;
891 [label="X[48] <= 1.872\ngini = 0.005\nsamples = 32668\nvalue = [32582, 40, 14, 14, 18]"] ;
851 -> 891 ;
892 [label="X[22] <= 0.935\ngini = 0.005\nsamples = 32638\nvalue = [32555, 40, 11, 14, 18]"] ;
891 -> 892 ;
893 [label="X[50] <= -0.113\ngini = 0.005\nsamples = 32634\nvalue = [32552, 40, 10, 14, 18]"] ;
892 -> 893 ;
894 [label="X[50] <= -0.113\ngini = 0.022\nsamples = 2987\nvalue = [2954, 20, 1, 2, 10]"] ;
893 -> 894 ;
895 [label="X[56] <= 1.624\ngini = 0.021\nsamples = 2986\nvalue = [2954, 19, 1, 2, 10]"] ;
894 -> 895 ;
896 [label="X[26] <= -0.307\ngini = 0.021\nsamples = 2984\nvalue = [2953, 19, 1, 2, 9]"] ;
895 -> 896 ;
897 [label="X[18] <= 0.121\ngini = 0.06\nsamples = 545\nvalue = [528, 17, 0, 0, 0]"] ;
896 -> 897 ;
898 [label="X[14] <= -0.005\ngini = 0.004\nsamples = 470\nvalue = [469, 1, 0, 0, 0]"] ;
897 -> 898 ;
899 [label="X[17] <= 0.202\ngini = 0.5\nsamples = 2\nvalue = [1, 1, 0, 0, 0]"] ;
898 -> 899 ;
900 [label="gini = 0.0\nsamples = 1\nvalue = [0, 1, 0, 0, 0]"] ;
899 -> 900 ;
901 [label="gini = 0.0\nsamples = 1\nvalue = [1, 0, 0, 0, 0]"] ;
899 -> 901 ;
902 [label="gini = 0.0\nsamples = 468\nvalue = [468, 0, 0, 0, 0]"] ;
898 -> 902 ;
903 [label="X[49] <= -0.018\ngini = 0.336\nsamples = 75\nvalue = [59, 16, 0, 0, 0]"] ;
897 -> 903 ;
904 [label="gini = 0.0\nsamples = 57\nvalue = [57, 0, 0, 0, 0]"] ;
903 -> 904 ;
905 [label="X[47] <= 2.265\ngini = 0.198\nsamples = 18\nvalue = [2, 16, 0, 0, 0]"] ;
903 -> 905 ;
906 [label="gini = 0.0\nsamples = 15\nvalue = [0, 15, 0, 0, 0]"] ;
905 -> 906 ;
907 [label="X[34] <= -2.549\ngini = 0.444\nsamples = 3\nvalue = [2, 1, 0, 0, 0]"] ;
905 -> 907 ;
908 [label="gini = 0.0\nsamples = 2\nvalue = [2, 0, 0, 0, 0]"] ;
907 -> 908 ;
909 [label="gini = 0.0\nsamples = 1\nvalue = [0, 1, 0, 0, 0]"] ;
907 -> 909 ;
910 [label="X[23] <= 0.572\ngini = 0.011\nsamples = 2439\nvalue = [2425, 2, 1, 2, 9]"] ;
896 -> 910 ;
911 [label="X[25] <= -0.141\ngini = 0.011\nsamples = 2436\nvalue = [2423, 2, 1, 2, 8]"] ;
910 -> 911 ;
912 [label="X[9] <= -1.235\ngini = 0.085\nsamples = 158\nvalue = [151, 0, 0, 0, 7]"] ;
911 -> 912 ;
913 [label="X[50] <= -0.114\ngini = 0.014\nsamples = 144\nvalue = [143, 0, 0, 0, 1]"] ;
912 -> 913 ;
914 [label="gini = 0.0\nsamples = 143\nvalue = [143, 0, 0, 0, 0]"] ;
913 -> 914 ;
915 [label="gini = 0.0\nsamples = 1\nvalue = [0, 0, 0, 0, 1]"] ;
913 -> 915 ;
916 [label="X[37] <= -0.635\ngini = 0.49\nsamples = 14\nvalue = [8, 0, 0, 0, 6]"] ;
912 -> 916 ;
917 [label="gini = 0.0\nsamples = 6\nvalue = [0, 0, 0, 0, 6]"] ;
916 -> 917 ;
918 [label="gini = 0.0\nsamples = 8\nvalue = [8, 0, 0, 0, 0]"] ;
916 -> 918 ;
919 [label="X[53] <= 0.722\ngini = 0.005\nsamples = 2278\nvalue = [2272, 2, 1, 2, 1]"] ;
911 -> 919 ;
920 [label="X[10] <= -5.87\ngini = 0.004\nsamples = 2272\nvalue = [2267, 2, 1, 2, 0]"] ;
919 -> 920 ;
921 [label="X[7] <= 0.974\ngini = 0.031\nsamples = 324\nvalue = [319, 2, 1, 2, 0]"] ;
920 -> 921 ;
922 [label="X[10] <= -5.872\ngini = 0.018\nsamples = 322\nvalue = [319, 2, 0, 1, 0]"] ;
921 -> 922 ;
923 [label="X[45] <= -0.322\ngini = 0.012\nsamples = 321\nvalue = [319, 2, 0, 0, 0]"] ;
922 -> 923 ;
924 [label="gini = 0.0\nsamples = 1\nvalue = [0, 1, 0, 0, 0]"] ;
923 -> 924 ;
925 [label="X[17] <= -0.037\ngini = 0.006\nsamples = 320\nvalue = [319, 1, 0, 0, 0]"] ;
923 -> 925 ;
926 [label="X[57] <= 0.849\ngini = 0.111\nsamples = 17\nvalue = [16, 1, 0, 0, 0]"] ;
925 -> 926 ;
927 [label="gini = 0.0\nsamples = 16\nvalue = [16, 0, 0, 0, 0]"] ;
926 -> 927 ;
928 [label="gini = 0.0\nsamples = 1\nvalue = [0, 1, 0, 0, 0]"] ;
926 -> 928 ;
929 [label="gini = 0.0\nsamples = 303\nvalue = [303, 0, 0, 0, 0]"] ;
925 -> 929 ;
930 [label="gini = 0.0\nsamples = 1\nvalue = [0, 0, 0, 1, 0]"] ;
922 -> 930 ;
931 [label="X[31] <= -2.13\ngini = 0.5\nsamples = 2\nvalue = [0, 0, 1, 1, 0]"] ;
921 -> 931 ;
932 [label="gini = 0.0\nsamples = 1\nvalue = [0, 0, 1, 0, 0]"] ;
931 -> 932 ;
933 [label="gini = 0.0\nsamples = 1\nvalue = [0, 0, 0, 1, 0]"] ;
931 -> 933 ;
934 [label="gini = 0.0\nsamples = 1948\nvalue = [1948, 0, 0, 0, 0]"] ;
920 -> 934 ;
935 [label="X[48] <= 0.896\ngini = 0.278\nsamples = 6\nvalue = [5, 0, 0, 0, 1]"] ;
919 -> 935 ;
936 [label="gini = 0.0\nsamples = 5\nvalue = [5, 0, 0, 0, 0]"] ;
935 -> 936 ;
937 [label="gini = 0.0\nsamples = 1\nvalue = [0, 0, 0, 0, 1]"] ;
935 -> 937 ;
938 [label="X[51] <= 0.34\ngini = 0.444\nsamples = 3\nvalue = [2, 0, 0, 0, 1]"] ;
910 -> 938 ;
939 [label="gini = 0.0\nsamples = 2\nvalue = [2, 0, 0, 0, 0]"] ;
938 -> 939 ;
940 [label="gini = 0.0\nsamples = 1\nvalue = [0, 0, 0, 0, 1]"] ;
938 -> 940 ;
941 [label="X[43] <= -0.019\ngini = 0.5\nsamples = 2\nvalue = [1, 0, 0, 0, 1]"] ;
895 -> 941 ;
942 [label="gini = 0.0\nsamples = 1\nvalue = [1, 0, 0, 0, 0]"] ;
941 -> 942 ;
943 [label="gini = 0.0\nsamples = 1\nvalue = [0, 0, 0, 0, 1]"] ;
941 -> 943 ;
944 [label="gini = 0.0\nsamples = 1\nvalue = [0, 1, 0, 0, 0]"] ;
894 -> 944 ;
945 [label="X[36] <= 2.831\ngini = 0.003\nsamples = 29647\nvalue = [29598, 20, 9, 12, 8]"] ;
893 -> 945 ;
946 [label="X[11] <= -8.609\ngini = 0.003\nsamples = 29544\nvalue = [29498, 20, 6, 12, 8]"] ;
945 -> 946 ;
947 [label="X[37] <= -0.07\ngini = 0.142\nsamples = 13\nvalue = [12, 0, 0, 0, 1]"] ;
946 -> 947 ;
948 [label="gini = 0.0\nsamples = 12\nvalue = [12, 0, 0, 0, 0]"] ;
947 -> 948 ;
949 [label="gini = 0.0\nsamples = 1\nvalue = [0, 0, 0, 0, 1]"] ;
947 -> 949 ;
950 [label="X[45] <= -0.049\ngini = 0.003\nsamples = 29531\nvalue = [29486, 20, 6, 12, 7]"] ;
946 -> 950 ;
951 [label="X[45] <= -0.049\ngini = 0.014\nsamples = 2453\nvalue = [2436, 12, 0, 2, 3]"] ;
950 -> 951 ;
952 [label="X[8] <= -7.178\ngini = 0.013\nsamples = 2452\nvalue = [2436, 11, 0, 2, 3]"] ;
951 -> 952 ;
953 [label="X[57] <= 0.839\ngini = 0.408\nsamples = 7\nvalue = [5, 2, 0, 0, 0]"] ;
952 -> 953 ;
954 [label="gini = 0.0\nsamples = 5\nvalue = [5, 0, 0, 0, 0]"] ;
953 -> 954 ;
955 [label="gini = 0.0\nsamples = 2\nvalue = [0, 2, 0, 0, 0]"] ;
953 -> 955 ;
956 [label="X[56] <= 0.671\ngini = 0.011\nsamples = 2445\nvalue = [2431, 9, 0, 2, 3]"] ;
952 -> 956 ;
957 [label="X[8] <= -3.275\ngini = 0.338\nsamples = 15\nvalue = [12, 2, 0, 1, 0]"] ;
956 -> 957 ;
958 [label="gini = 0.0\nsamples = 2\nvalue = [0, 2, 0, 0, 0]"] ;
957 -> 958 ;
959 [label="X[45] <= -0.054\ngini = 0.142\nsamples = 13\nvalue = [12, 0, 0, 1, 0]"] ;
957 -> 959 ;
960 [label="gini = 0.0\nsamples = 12\nvalue = [12, 0, 0, 0, 0]"] ;
959 -> 960 ;
961 [label="gini = 0.0\nsamples = 1\nvalue = [0, 0, 0, 1, 0]"] ;
959 -> 961 ;
962 [label="X[20] <= -0.234\ngini = 0.009\nsamples = 2430\nvalue = [2419, 7, 0, 1, 3]"] ;
956 -> 962 ;
963 [label="X[48] <= 1.507\ngini = 0.003\nsamples = 2188\nvalue = [2185, 0, 0, 0, 3]"] ;
962 -> 963 ;
964 [label="X[11] <= -7.201\ngini = 0.002\nsamples = 2184\nvalue = [2182, 0, 0, 0, 2]"] ;
963 -> 964 ;
965 [label="X[37] <= -0.107\ngini = 0.219\nsamples = 8\nvalue = [7, 0, 0, 0, 1]"] ;
964 -> 965 ;
966 [label="gini = 0.0\nsamples = 7\nvalue = [7, 0, 0, 0, 0]"] ;
965 -> 966 ;
967 [label="gini = 0.0\nsamples = 1\nvalue = [0, 0, 0, 0, 1]"] ;
965 -> 967 ;
968 [label="X[21] <= 0.078\ngini = 0.001\nsamples = 2176\nvalue = [2175, 0, 0, 0, 1]"] ;
964 -> 968 ;
969 [label="X[24] <= 0.023\ngini = 0.133\nsamples = 14\nvalue = [13, 0, 0, 0, 1]"] ;
968 -> 969 ;
970 [label="gini = 0.0\nsamples = 1\nvalue = [0, 0, 0, 0, 1]"] ;
969 -> 970 ;
971 [label="gini = 0.0\nsamples = 13\nvalue = [13, 0, 0, 0, 0]"] ;
969 -> 971 ;
972 [label="gini = 0.0\nsamples = 2162\nvalue = [2162, 0, 0, 0, 0]"] ;
968 -> 972 ;
973 [label="X[16] <= -0.013\ngini = 0.375\nsamples = 4\nvalue = [3, 0, 0, 0, 1]"] ;
963 -> 973 ;
974 [label="gini = 0.0\nsamples = 1\nvalue = [0, 0, 0, 0, 1]"] ;
973 -> 974 ;
975 [label="gini = 0.0\nsamples = 3\nvalue = [3, 0, 0, 0, 0]"] ;
973 -> 975 ;
976 [label="X[20] <= -0.212\ngini = 0.064\nsamples = 242\nvalue = [234, 7, 0, 1, 0]"] ;
962 -> 976 ;
977 [label="X[51] <= 0.016\ngini = 0.5\nsamples = 6\nvalue = [3, 3, 0, 0, 0]"] ;
976 -> 977 ;
978 [label="gini = 0.0\nsamples = 3\nvalue = [0, 3, 0, 0, 0]"] ;
977 -> 978 ;
979 [label="gini = 0.0\nsamples = 3\nvalue = [3, 0, 0, 0, 0]"] ;
977 -> 979 ;
980 [label="X[45] <= -0.049\ngini = 0.042\nsamples = 236\nvalue = [231, 4, 0, 1, 0]"] ;
976 -> 980 ;
981 [label="X[24] <= 0.282\ngini = 0.034\nsamples = 234\nvalue = [230, 3, 0, 1, 0]"] ;
980 -> 981 ;
982 [label="X[13] <= -5.116\ngini = 0.009\nsamples = 216\nvalue = [215, 0, 0, 1, 0]"] ;
981 -> 982 ;
983 [label="X[0] <= -4.347\ngini = 0.5\nsamples = 2\nvalue = [1, 0, 0, 1, 0]"] ;
982 -> 983 ;
984 [label="gini = 0.0\nsamples = 1\nvalue = [0, 0, 0, 1, 0]"] ;
983 -> 984 ;
985 [label="gini = 0.0\nsamples = 1\nvalue = [1, 0, 0, 0, 0]"] ;
983 -> 985 ;
986 [label="gini = 0.0\nsamples = 214\nvalue = [214, 0, 0, 0, 0]"] ;
982 -> 986 ;
987 [label="X[17] <= -0.237\ngini = 0.278\nsamples = 18\nvalue = [15, 3, 0, 0, 0]"] ;
981 -> 987 ;
988 [label="gini = 0.0\nsamples = 3\nvalue = [0, 3, 0, 0, 0]"] ;
987 -> 988 ;
989 [label="gini = 0.0\nsamples = 15\nvalue = [15, 0, 0, 0, 0]"] ;
987 -> 989 ;
990 [label="X[47] <= -0.08\ngini = 0.5\nsamples = 2\nvalue = [1, 1, 0, 0, 0]"] ;
980 -> 990 ;
991 [label="gini = 0.0\nsamples = 1\nvalue = [0, 1, 0, 0, 0]"] ;
990 -> 991 ;
992 [label="gini = 0.0\nsamples = 1\nvalue = [1, 0, 0, 0, 0]"] ;
990 -> 992 ;
993 [label="gini = 0.0\nsamples = 1\nvalue = [0, 1, 0, 0, 0]"] ;
951 -> 993 ;
994 [label="X[27] <= 1.089\ngini = 0.002\nsamples = 27078\nvalue = [27050, 8, 6, 10, 4]"] ;
950 -> 994 ;
995 [label="X[21] <= 0.628\ngini = 0.002\nsamples = 27060\nvalue = [27033, 8, 6, 10, 3]"] ;
994 -> 995 ;
996 [label="X[30] <= -9.997\ngini = 0.002\nsamples = 26800\nvalue = [26777, 8, 6, 7, 2]"] ;
995 -> 996 ;
997 [label="X[8] <= -0.577\ngini = 0.077\nsamples = 25\nvalue = [24, 1, 0, 0, 0]"] ;
996 -> 997 ;
998 [label="gini = 0.0\nsamples = 24\nvalue = [24, 0, 0, 0, 0]"] ;
997 -> 998 ;
999 [label="gini = 0.0\nsamples = 1\nvalue = [0, 1, 0, 0, 0]"] ;
997 -> 999 ;
1000 [label="X[49] <= -0.815\ngini = 0.002\nsamples = 26775\nvalue = [26753, 7, 6, 7, 2]"] ;
996 -> 1000 ;
1001 [label="X[8] <= 0.512\ngini = 0.048\nsamples = 41\nvalue = [40, 1, 0, 0, 0]"] ;
1000 -> 1001 ;
1002 [label="gini = 0.0\nsamples = 40\nvalue = [40, 0, 0, 0, 0]"] ;
1001 -> 1002 ;
1003 [label="gini = 0.0\nsamples = 1\nvalue = [0, 1, 0, 0, 0]"] ;
1001 -> 1003 ;
1004 [label="X[47] <= -3.042\ngini = 0.002\nsamples = 26734\nvalue = [26713, 6, 6, 7, 2]"] ;
1000 -> 1004 ;
1005 [label="X[57] <= 1.133\ngini = 0.04\nsamples = 49\nvalue = [48, 0, 0, 1, 0]"] ;
1004 -> 1005 ;
1006 [label="gini = 0.0\nsamples = 48\nvalue = [48, 0, 0, 0, 0]"] ;
1005 -> 1006 ;
1007 [label="gini = 0.0\nsamples = 1\nvalue = [0, 0, 0, 1, 0]"] ;
1005 -> 1007 ;
1008 [label="X[56] <= 0.696\ngini = 0.001\nsamples = 26685\nvalue = [26665, 6, 6, 6, 2]"] ;
1004 -> 1008 ;
1009 [label="X[19] <= 0.406\ngini = 0.006\nsamples = 3154\nvalue = [3144, 4, 3, 3, 0]"] ;
1008 -> 1009 ;
1010 [label="X[41] <= 0.013\ngini = 0.5\nsamples = 6\nvalue = [3, 0, 3, 0, 0]"] ;
1009 -> 1010 ;
1011 [label="gini = 0.0\nsamples = 3\nvalue = [0, 0, 3, 0, 0]"] ;
1010 -> 1011 ;
1012 [label="gini = 0.0\nsamples = 3\nvalue = [3, 0, 0, 0, 0]"] ;
1010 -> 1012 ;
1013 [label="X[57] <= 0.774\ngini = 0.004\nsamples = 3148\nvalue = [3141, 4, 0, 3, 0]"] ;
1009 -> 1013 ;
1014 [label="X[23] <= -0.506\ngini = 0.002\nsamples = 3125\nvalue = [3122, 1, 0, 2, 0]"] ;
1013 -> 1014 ;
1015 [label="X[23] <= -0.507\ngini = 0.124\nsamples = 15\nvalue = [14, 1, 0, 0, 0]"] ;
1014 -> 1015 ;
1016 [label="gini = 0.0\nsamples = 14\nvalue = [14, 0, 0, 0, 0]"] ;
1015 -> 1016 ;
1017 [label="gini = 0.0\nsamples = 1\nvalue = [0, 1, 0, 0, 0]"] ;
1015 -> 1017 ;
1018 [label="X[55] <= 0.111\ngini = 0.001\nsamples = 3110\nvalue = [3108, 0, 0, 2, 0]"] ;
1014 -> 1018 ;
1019 [label="X[55] <= 0.069\ngini = 0.001\nsamples = 3027\nvalue = [3026, 0, 0, 1, 0]"] ;
1018 -> 1019 ;
1020 [label="gini = 0.0\nsamples = 2593\nvalue = [2593, 0, 0, 0, 0]"] ;
1019 -> 1020 ;
1021 [label="X[55] <= 0.069\ngini = 0.005\nsamples = 434\nvalue = [433, 0, 0, 1, 0]"] ;
1019 -> 1021 ;
1022 [label="gini = 0.0\nsamples = 1\nvalue = [0, 0, 0, 1, 0]"] ;
1021 -> 1022 ;
1023 [label="gini = 0.0\nsamples = 433\nvalue = [433, 0, 0, 0, 0]"] ;
1021 -> 1023 ;
1024 [label="X[55] <= 0.111\ngini = 0.024\nsamples = 83\nvalue = [82, 0, 0, 1, 0]"] ;
1018 -> 1024 ;
1025 [label="gini = 0.0\nsamples = 1\nvalue = [0, 0, 0, 1, 0]"] ;
1024 -> 1025 ;
1026 [label="gini = 0.0\nsamples = 82\nvalue = [82, 0, 0, 0, 0]"] ;
1024 -> 1026 ;
1027 [label="X[45] <= -0.03\ngini = 0.299\nsamples = 23\nvalue = [19, 3, 0, 1, 0]"] ;
1013 -> 1027 ;
1028 [label="gini = 0.0\nsamples = 3\nvalue = [0, 3, 0, 0, 0]"] ;
1027 -> 1028 ;
1029 [label="X[56] <= 0.693\ngini = 0.095\nsamples = 20\nvalue = [19, 0, 0, 1, 0]"] ;
1027 -> 1029 ;
1030 [label="gini = 0.0\nsamples = 19\nvalue = [19, 0, 0, 0, 0]"] ;
1029 -> 1030 ;
1031 [label="gini = 0.0\nsamples = 1\nvalue = [0, 0, 0, 1, 0]"] ;
1029 -> 1031 ;
1032 [label="X[18] <= -0.225\ngini = 0.001\nsamples = 23531\nvalue = [23521, 2, 3, 3, 2]"] ;
1008 -> 1032 ;
1033 [label="X[18] <= -0.225\ngini = 0.014\nsamples = 418\nvalue = [415, 0, 1, 2, 0]"] ;
1032 -> 1033 ;
1034 [label="X[10] <= -6.726\ngini = 0.01\nsamples = 417\nvalue = [415, 0, 0, 2, 0]"] ;
1033 -> 1034 ;
1035 [label="X[46] <= 0.174\ngini = 0.5\nsamples = 2\nvalue = [1, 0, 0, 1, 0]"] ;
1034 -> 1035 ;
1036 [label="gini = 0.0\nsamples = 1\nvalue = [0, 0, 0, 1, 0]"] ;
1035 -> 1036 ;
1037 [label="gini = 0.0\nsamples = 1\nvalue = [1, 0, 0, 0, 0]"] ;
1035 -> 1037 ;
1038 [label="X[45] <= -0.04\ngini = 0.005\nsamples = 415\nvalue = [414, 0, 0, 1, 0]"] ;
1034 -> 1038 ;
1039 [label="X[22] <= 0.025\ngini = 0.5\nsamples = 2\nvalue = [1, 0, 0, 1, 0]"] ;
1038 -> 1039 ;
1040 [label="gini = 0.0\nsamples = 1\nvalue = [0, 0, 0, 1, 0]"] ;
1039 -> 1040 ;
1041 [label="gini = 0.0\nsamples = 1\nvalue = [1, 0, 0, 0, 0]"] ;
1039 -> 1041 ;
1042 [label="gini = 0.0\nsamples = 413\nvalue = [413, 0, 0, 0, 0]"] ;
1038 -> 1042 ;
1043 [label="gini = 0.0\nsamples = 1\nvalue = [0, 0, 1, 0, 0]"] ;
1033 -> 1043 ;
1044 [label="X[35] <= 2.437\ngini = 0.001\nsamples = 23113\nvalue = [23106, 2, 2, 1, 2]"] ;
1032 -> 1044 ;
1045 [label="X[27] <= 0.706\ngini = 0.001\nsamples = 23036\nvalue = [23030, 2, 1, 1, 2]"] ;
1044 -> 1045 ;
1046 [label="X[21] <= 0.586\ngini = 0.0\nsamples = 22958\nvalue = [22953, 2, 1, 1, 1]"] ;
1045 -> 1046 ;
1047 [label="X[25] <= -0.295\ngini = 0.0\nsamples = 22838\nvalue = [22834, 2, 0, 1, 1]"] ;
1046 -> 1047 ;
1048 [label="X[25] <= -0.295\ngini = 0.016\nsamples = 127\nvalue = [126, 0, 0, 0, 1]"] ;
1047 -> 1048 ;
1049 [label="gini = 0.0\nsamples = 126\nvalue = [126, 0, 0, 0, 0]"] ;
1048 -> 1049 ;
1050 [label="gini = 0.0\nsamples = 1\nvalue = [0, 0, 0, 0, 1]"] ;
1048 -> 1050 ;
1051 [label="X[7] <= -5.394\ngini = 0.0\nsamples = 22711\nvalue = [22708, 2, 0, 1, 0]"] ;
1047 -> 1051 ;
1052 [label="X[7] <= -5.403\ngini = 0.016\nsamples = 125\nvalue = [124, 0, 0, 1, 0]"] ;
1051 -> 1052 ;
1053 [label="gini = 0.0\nsamples = 124\nvalue = [124, 0, 0, 0, 0]"] ;
1052 -> 1053 ;
1054 [label="gini = 0.0\nsamples = 1\nvalue = [0, 0, 0, 1, 0]"] ;
1052 -> 1054 ;
1055 [label="X[54] <= -0.256\ngini = 0.0\nsamples = 22586\nvalue = [22584, 2, 0, 0, 0]"] ;
1051 -> 1055 ;
1056 [label="X[54] <= -0.257\ngini = 0.016\nsamples = 125\nvalue = [124, 1, 0, 0, 0]"] ;
1055 -> 1056 ;
1057 [label="gini = 0.0\nsamples = 124\nvalue = [124, 0, 0, 0, 0]"] ;
1056 -> 1057 ;
1058 [label="gini = 0.0\nsamples = 1\nvalue = [0, 1, 0, 0, 0]"] ;
1056 -> 1058 ;
1059 [label="X[57] <= 1.149\ngini = 0.0\nsamples = 22461\nvalue = [22460, 1, 0, 0, 0]"] ;
1055 -> 1059 ;
1060 [label="gini = 0.0\nsamples = 21954\nvalue = [21954, 0, 0, 0, 0]"] ;
1059 -> 1060 ;
1061 [label="X[18] <= 0.479\ngini = 0.004\nsamples = 507\nvalue = [506, 1, 0, 0, 0]"] ;
1059 -> 1061 ;
1062 [label="gini = 0.0\nsamples = 497\nvalue = [497, 0, 0, 0, 0]"] ;
1061 -> 1062 ;
1063 [label="X[48] <= 0.062\ngini = 0.18\nsamples = 10\nvalue = [9, 1, 0, 0, 0]"] ;
1061 -> 1063 ;
1064 [label="gini = 0.0\nsamples = 1\nvalue = [0, 1, 0, 0, 0]"] ;
1063 -> 1064 ;
1065 [label="gini = 0.0\nsamples = 9\nvalue = [9, 0, 0, 0, 0]"] ;
1063 -> 1065 ;
1066 [label="X[21] <= 0.586\ngini = 0.017\nsamples = 120\nvalue = [119, 0, 1, 0, 0]"] ;
1046 -> 1066 ;
1067 [label="gini = 0.0\nsamples = 1\nvalue = [0, 0, 1, 0, 0]"] ;
1066 -> 1067 ;
1068 [label="gini = 0.0\nsamples = 119\nvalue = [119, 0, 0, 0, 0]"] ;
1066 -> 1068 ;
1069 [label="X[47] <= -0.88\ngini = 0.025\nsamples = 78\nvalue = [77, 0, 0, 0, 1]"] ;
1045 -> 1069 ;
1070 [label="gini = 0.0\nsamples = 1\nvalue = [0, 0, 0, 0, 1]"] ;
1069 -> 1070 ;
1071 [label="gini = 0.0\nsamples = 77\nvalue = [77, 0, 0, 0, 0]"] ;
1069 -> 1071 ;
1072 [label="X[39] <= -0.362\ngini = 0.026\nsamples = 77\nvalue = [76, 0, 1, 0, 0]"] ;
1044 -> 1072 ;
1073 [label="gini = 0.0\nsamples = 1\nvalue = [0, 0, 1, 0, 0]"] ;
1072 -> 1073 ;
1074 [label="gini = 0.0\nsamples = 76\nvalue = [76, 0, 0, 0, 0]"] ;
1072 -> 1074 ;
1075 [label="X[17] <= 0.181\ngini = 0.03\nsamples = 260\nvalue = [256, 0, 0, 3, 1]"] ;
995 -> 1075 ;
1076 [label="X[47] <= -0.032\ngini = 0.015\nsamples = 257\nvalue = [255, 0, 0, 1, 1]"] ;
1075 -> 1076 ;
1077 [label="X[46] <= 0.152\ngini = 0.008\nsamples = 256\nvalue = [255, 0, 0, 1, 0]"] ;
1076 -> 1077 ;
1078 [label="gini = 0.0\nsamples = 254\nvalue = [254, 0, 0, 0, 0]"] ;
1077 -> 1078 ;
1079 [label="X[6] <= -2.957\ngini = 0.5\nsamples = 2\nvalue = [1, 0, 0, 1, 0]"] ;
1077 -> 1079 ;
1080 [label="gini = 0.0\nsamples = 1\nvalue = [0, 0, 0, 1, 0]"] ;
1079 -> 1080 ;
1081 [label="gini = 0.0\nsamples = 1\nvalue = [1, 0, 0, 0, 0]"] ;
1079 -> 1081 ;
1082 [label="gini = 0.0\nsamples = 1\nvalue = [0, 0, 0, 0, 1]"] ;
1076 -> 1082 ;
1083 [label="X[22] <= -0.286\ngini = 0.444\nsamples = 3\nvalue = [1, 0, 0, 2, 0]"] ;
1075 -> 1083 ;
1084 [label="gini = 0.0\nsamples = 2\nvalue = [0, 0, 0, 2, 0]"] ;
1083 -> 1084 ;
1085 [label="gini = 0.0\nsamples = 1\nvalue = [1, 0, 0, 0, 0]"] ;
1083 -> 1085 ;
1086 [label="X[35] <= -0.47\ngini = 0.105\nsamples = 18\nvalue = [17, 0, 0, 0, 1]"] ;
994 -> 1086 ;
1087 [label="gini = 0.0\nsamples = 1\nvalue = [0, 0, 0, 0, 1]"] ;
1086 -> 1087 ;
1088 [label="gini = 0.0\nsamples = 17\nvalue = [17, 0, 0, 0, 0]"] ;
1086 -> 1088 ;
1089 [label="X[39] <= -0.749\ngini = 0.057\nsamples = 103\nvalue = [100, 0, 3, 0, 0]"] ;
945 -> 1089 ;
1090 [label="gini = 0.0\nsamples = 2\nvalue = [0, 0, 2, 0, 0]"] ;
1089 -> 1090 ;
1091 [label="X[39] <= 2.642\ngini = 0.02\nsamples = 101\nvalue = [100, 0, 1, 0, 0]"] ;
1089 -> 1091 ;
1092 [label="X[43] <= -0.002\ngini = 0.32\nsamples = 5\nvalue = [4, 0, 1, 0, 0]"] ;
1091 -> 1092 ;
1093 [label="gini = 0.0\nsamples = 1\nvalue = [0, 0, 1, 0, 0]"] ;
1092 -> 1093 ;
1094 [label="gini = 0.0\nsamples = 4\nvalue = [4, 0, 0, 0, 0]"] ;
1092 -> 1094 ;
1095 [label="gini = 0.0\nsamples = 96\nvalue = [96, 0, 0, 0, 0]"] ;
1091 -> 1095 ;
1096 [label="X[53] <= -0.888\ngini = 0.375\nsamples = 4\nvalue = [3, 0, 1, 0, 0]"] ;
892 -> 1096 ;
1097 [label="gini = 0.0\nsamples = 1\nvalue = [0, 0, 1, 0, 0]"] ;
1096 -> 1097 ;
1098 [label="gini = 0.0\nsamples = 3\nvalue = [3, 0, 0, 0, 0]"] ;
1096 -> 1098 ;
1099 [label="X[23] <= -0.495\ngini = 0.18\nsamples = 30\nvalue = [27, 0, 3, 0, 0]"] ;
891 -> 1099 ;
1100 [label="gini = 0.0\nsamples = 3\nvalue = [0, 0, 3, 0, 0]"] ;
1099 -> 1100 ;
1101 [label="gini = 0.0\nsamples = 27\nvalue = [27, 0, 0, 0, 0]"] ;
1099 -> 1101 ;
1102 [label="X[11] <= -4.14\ngini = 0.118\nsamples = 194\nvalue = [182, 1, 0, 2, 9]"] ;
850 -> 1102 ;
1103 [label="X[55] <= -0.042\ngini = 0.346\nsamples = 9\nvalue = [2, 0, 0, 0, 7]"] ;
1102 -> 1103 ;
1104 [label="gini = 0.0\nsamples = 2\nvalue = [2, 0, 0, 0, 0]"] ;
1103 -> 1104 ;
1105 [label="gini = 0.0\nsamples = 7\nvalue = [0, 0, 0, 0, 7]"] ;
1103 -> 1105 ;
1106 [label="X[8] <= 1.141\ngini = 0.053\nsamples = 185\nvalue = [180, 1, 0, 2, 2]"] ;
1102 -> 1106 ;
1107 [label="X[6] <= 0.341\ngini = 0.5\nsamples = 2\nvalue = [0, 0, 0, 1, 1]"] ;
1106 -> 1107 ;
1108 [label="gini = 0.0\nsamples = 1\nvalue = [0, 0, 0, 1, 0]"] ;
1107 -> 1108 ;
1109 [label="gini = 0.0\nsamples = 1\nvalue = [0, 0, 0, 0, 1]"] ;
1107 -> 1109 ;
1110 [label="X[0] <= -2.071\ngini = 0.032\nsamples = 183\nvalue = [180, 1, 0, 1, 1]"] ;
1106 -> 1110 ;
1111 [label="X[19] <= 3.344\ngini = 0.5\nsamples = 2\nvalue = [1, 0, 0, 1, 0]"] ;
1110 -> 1111 ;
1112 [label="gini = 0.0\nsamples = 1\nvalue = [1, 0, 0, 0, 0]"] ;
1111 -> 1112 ;
1113 [label="gini = 0.0\nsamples = 1\nvalue = [0, 0, 0, 1, 0]"] ;
1111 -> 1113 ;
1114 [label="X[18] <= 0.432\ngini = 0.022\nsamples = 181\nvalue = [179, 1, 0, 0, 1]"] ;
1110 -> 1114 ;
1115 [label="X[46] <= 0.372\ngini = 0.011\nsamples = 179\nvalue = [178, 1, 0, 0, 0]"] ;
1114 -> 1115 ;
1116 [label="gini = 0.0\nsamples = 167\nvalue = [167, 0, 0, 0, 0]"] ;
1115 -> 1116 ;
1117 [label="X[21] <= 0.411\ngini = 0.153\nsamples = 12\nvalue = [11, 1, 0, 0, 0]"] ;
1115 -> 1117 ;
1118 [label="gini = 0.0\nsamples = 11\nvalue = [11, 0, 0, 0, 0]"] ;
1117 -> 1118 ;
1119 [label="gini = 0.0\nsamples = 1\nvalue = [0, 1, 0, 0, 0]"] ;
1117 -> 1119 ;
1120 [label="X[47] <= -0.441\ngini = 0.5\nsamples = 2\nvalue = [1, 0, 0, 0, 1]"] ;
1114 -> 1120 ;
